{"learner":{"attributes":{"scikit_learn":"{\"_estimator_type\": \"classifier\"}"},"feature_names":["age","job","marital","education","default","housing","loan","contact","month","day_of_week","duration","campaign","pdays","previous","poutcome","emp.var.rate","cons.price.idx","cons.conf.idx","euribor3m","nr.employed"],"feature_types":["int","int","int","int","int","int","int","int","int","int","int","int","int","int","int","float","float","float","float","float"],"gradient_booster":{"model":{"gbtree_model_param":{"num_parallel_tree":"1","num_trees":"400"},"iteration_indptr":[0,1,2,3,4,5,6,7,8,9,10,11,12,13,14,15,16,17,18,19,20,21,22,23,24,25,26,27,28,29,30,31,32,33,34,35,36,37,38,39,40,41,42,43,44,45,46,47,48,49,50,51,52,53,54,55,56,57,58,59,60,61,62,63,64,65,66,67,68,69,70,71,72,73,74,75,76,77,78,79,80,81,82,83,84,85,86,87,88,89,90,91,92,93,94,95,96,97,98,99,100,101,102,103,104,105,106,107,108,109,110,111,112,113,114,115,116,117,118,119,120,121,122,123,124,125,126,127,128,129,130,131,132,133,134,135,136,137,138,139,140,141,142,143,144,145,146,147,148,149,150,151,152,153,154,155,156,157,158,159,160,161,162,163,164,165,166,167,168,169,170,171,172,173,174,175,176,177,178,179,180,181,182,183,184,185,186,187,188,189,190,191,192,193,194,195,196,197,198,199,200,201,202,203,204,205,206,207,208,209,210,211,212,213,214,215,216,217,218,219,220,221,222,223,224,225,226,227,228,229,230,231,232,233,234,235,236,237,238,239,240,241,242,243,244,245,246,247,248,249,250,251,252,253,254,255,256,257,258,259,260,261,262,263,264,265,266,267,268,269,270,271,272,273,274,275,276,277,278,279,280,281,282,283,284,285,286,287,288,289,290,291,292,293,294,295,296,297,298,299,300,301,302,303,304,305,306,307,308,309,310,311,312,313,314,315,316,317,318,319,320,321,322,323,324,325,326,327,328,329,330,331,332,333,334,335,336,337,338,339,340,341,342,343,344,345,346,347,348,349,350,351,352,353,354,355,356,357,358,359,360,361,362,363,364,365,366,367,368,369,370,371,372,373,374,375,376,377,378,379,380,381,382,383,384,385,386,387,388,389,390,391,392,393,394,395,396,397,398,399,400],"tree_info":[0,0,0,0,0,0,0,0,0,0,0,0,0,0,0,0,0,0,0,0,0,0,0,0,0,0,0,0,0,0,0,0,0,0,0,0,0,0,0,0,0,0,0,0,0,0,0,0,0,0,0,0,0,0,0,0,0,0,0,0,0,0,0,0,0,0,0,0,0,0,0,0,0,0,0,0,0,0,0,0,0,0,0,0,0,0,0,0,0,0,0,0,0,0,0,0,0,0,0,0,0,0,0,0,0,0,0,0,0,0,0,0,0,0,0,0,0,0,0,0,0,0,0,0,0,0,0,0,0,0,0,0,0,0,0,0,0,0,0,0,0,0,0,0,0,0,0,0,0,0,0,0,0,0,0,0,0,0,0,0,0,0,0,0,0,0,0,0,0,0,0,0,0,0,0,0,0,0,0,0,0,0,0,0,0,0,0,0,0,0,0,0,0,0,0,0,0,0,0,0,0,0,0,0,0,0,0,0,0,0,0,0,0,0,0,0,0,0,0,0,0,0,0,0,0,0,0,0,0,0,0,0,0,0,0,0,0,0,0,0,0,0,0,0,0,0,0,0,0,0,0,0,0,0,0,0,0,0,0,0,0,0,0,0,0,0,0,0,0,0,0,0,0,0,0,0,0,0,0,0,0,0,0,0,0,0,0,0,0,0,0,0,0,0,0,0,0,0,0,0,0,0,0,0,0,0,0,0,0,0,0,0,0,0,0,0,0,0,0,0,0,0,0,0,0,0,0,0,0,0,0,0,0,0,0,0,0,0,0,0,0,0,0,0,0,0,0,0,0,0,0,0,0,0,0,0,0,0,0,0,0,0,0,0,0,0,0,0,0,0,0,0,0,0,0,0,0,0,0,0,0,0,0,0,0,0,0,0,0,0,0,0,0,0,0,0,0,0,0,0],"trees":[{"base_weights":[-4.4489506E-1,1.8047013E0,-7.720759E-1,-5.8655E-3,2.8586297E0,-1.0223147E0,2.0934644E0,1.1083355E-1,1.788917E-1,-1.0920315E0,-3.2623385E-3,6.261701E-2,1.4105576E-1,-1.3583695E-2,-5.7220776E-2],"categories":[],"categories_nodes":[],"categories_segments":[],"categories_sizes":[],"default_left":[0,0,0,0,0,0,0,0,0,0,0,0,0,0,0],"id":0,"left_children":[1,3,5,-1,7,9,11,-1,-1,13,-1,-1,-1,-1,-1],"loss_changes":[4.3658047E2,1.5301862E2,3.7278778E2,0E0,1.4563141E1,3.1692688E1,2.2075867E1,0E0,0E0,1.8755005E1,0E0,0E0,0E0,0E0,0E0],"parents":[2147483647,0,0,1,1,2,2,4,4,5,5,6,6,9,9],"right_children":[2,4,6,-1,8,10,12,-1,-1,14,-1,-1,-1,-1,-1],"split_conditions":[5.0991E3,1.66E2,6.16E2,-5.8655E-3,3.23E2,4.54E2,8.06E2,1.1083355E-1,1.788917E-1,-4.62E1,-3.2623385E-3,6.261701E-2,1.4105576E-1,-1.3583695E-2,-5.7220776E-2],"split_indices":[19,10,10,0,10,10,10,0,0,17,0,0,0,0,0],"split_type":[0,0,0,0,0,0,0,0,0,0,0,0,0,0,0],"sum_hessian":[5.902669E2,7.437449E1,5.1589246E2,2.6654442E1,4.772005E1,4.7505096E2,4.0841484E1,2.737096E1,2.034909E1,4.4266437E2,3.238658E1,2.0205788E1,2.0635696E1,2.694105E1,4.1572333E2],"tree_param":{"num_deleted":"0","num_feature":"20","num_nodes":"15","size_leaf_vector":"1"}},{"base_weights":[-4.2983344E-1,1.6211205E0,-7.533244E-1,-5.60406E-3,2.4893155E0,-1.0055497E0,1.8667874E0,9.8350964E-2,1.5260725E-1,-1.0766363E0,-3.1107098E-3,5.6069434E-2,1.3179027E-1,-1.3043164E-2,-5.6513477E-2],"categories":[],"categories_nodes":[],"categories_segments":[],"categories_sizes":[],"default_left":[0,0,0,0,0,0,0,0,0,0,0,0,0,0,0],"id":1,"left_children":[1,3,5,-1,7,9,11,-1,-1,13,-1,-1,-1,-1,-1],"loss_changes":[3.8775034E2,1.2019112E2,3.348856E2,0E0,9.616547E0,3.0800323E1,2.2609344E1,0E0,0E0,1.8430634E1,0E0,0E0,0E0,0E0,0E0],"parents":[2147483647,0,0,1,1,2,2,4,4,5,5,6,6,9,9],"right_children":[2,4,6,-1,8,10,12,-1,-1,14,-1,-1,-1,-1,-1],"split_conditions":[5.0991E3,1.66E2,6.16E2,-5.60406E-3,3.23E2,4.54E2,8.35E2,9.8350964E-2,1.5260725E-1,-4.62E1,-3.1107098E-3,5.6069434E-2,1.3179027E-1,-1.3043164E-2,-5.6513477E-2],"split_indices":[19,10,10,0,10,10,10,0,0,17,0,0,0,0,0],"split_type":[0,0,0,0,0,0,0,0,0,0,0,0,0,0,0],"sum_hessian":[5.815915E2,7.868869E1,5.029028E2,2.6552366E1,5.2136322E1,4.5930408E2,4.3598732E1,2.937329E1,2.2763031E1,4.2698648E2,3.2317577E1,2.3387627E1,2.0211105E1,2.6702324E1,4.0028418E2],"tree_param":{"num_deleted":"0","num_feature":"20","num_nodes":"15","size_leaf_vector":"1"}},{"base_weights":[-4.155752E-1,1.4701817E0,-7.3529553E-1,-5.353448E-3,2.20384E0,-9.8928756E-1,1.6817216E0,7.6581724E-2,1.2660359E-1,-1.0618142E0,-2.965844E-3,5.1571954E-2,1.1630074E-1,-1.2520528E-2,-5.5838943E-2],"categories":[],"categories_nodes":[],"categories_segments":[],"categories_sizes":[],"default_left":[0,0,0,0,0,0,0,0,0,0,0,0,0,0,0],"id":2,"left_children":[1,3,5,-1,7,9,11,-1,-1,13,-1,-1,-1,-1,-1],"loss_changes":[3.4686633E2,9.683009E1,3.0311945E2,0E0,8.702606E0,2.9950012E1,1.7319885E1,0E0,0E0,1.8127533E1,0E0,0E0,0E0,0E0,0E0],"parents":[2147483647,0,0,1,1,2,2,4,4,5,5,6,6,9,9],"right_children":[2,4,6,-1,8,10,12,-1,-1,14,-1,-1,-1,-1,-1],"split_conditions":[5.0991E3,1.66E2,6.16E2,-5.353448E-3,2.52E2,4.54E2,8.35E2,7.6581724E-2,1.2660359E-1,-4.62E1,-2.965844E-3,5.1571954E-2,1.1630074E-1,-1.2520528E-2,-5.5838943E-2],"split_indices":[19,10,10,0,10,10,10,0,0,17,0,0,0,0,0],"split_type":[0,0,0,0,0,0,0,0,0,0,0,0,0,0,0],"sum_hessian":[5.725227E2,8.2474976E1,4.9004773E2,2.6454971E1,5.6020004E1,4.4398254E2,4.6065174E1,2.0238556E1,3.578145E1,4.117307E2,3.225183E1,2.4220455E1,2.1844719E1,2.6473783E1,3.8525696E2],"tree_param":{"num_deleted":"0","num_feature":"20","num_nodes":"15","size_leaf_vector":"1"}},{"base_weights":[-4.0206218E-1,1.3429044E0,-7.1791345E-1,-5.113285E-3,1.9747568E0,-9.73467E-1,1.5273508E0,8.007069E-2,1.2785058E-1,-1.0740789E0,-2.855165E-1,4.7601674E-2,1.0401314E-1,-1.3975166E-2,-5.640107E-2,7.5424607E-3,-3.4102026E-2],"categories":[],"categories_nodes":[],"categories_segments":[],"categories_sizes":[],"default_left":[0,0,0,0,0,0,0,0,0,0,0,0,0,0,0,0,0],"id":3,"left_children":[1,3,5,-1,7,9,11,-1,-1,13,15,-1,-1,-1,-1,-1,-1],"loss_changes":[3.1191766E2,7.94794E1,2.759693E2,0E0,9.047348E0,2.9463043E1,1.3693275E1,0E0,0E0,1.5751801E1,9.833703E0,0E0,0E0,0E0,0E0,0E0,0E0],"parents":[2147483647,0,0,1,1,2,2,4,4,5,5,6,6,9,9,10,10],"right_children":[2,4,6,-1,8,10,12,-1,-1,14,16,-1,-1,-1,-1,-1,-1],"split_conditions":[5.0991E3,1.66E2,6.16E2,-5.113285E-3,3.62E2,3.77E2,8.35E2,8.007069E-2,1.2785058E-1,-4.62E1,9.3749E1,4.7601674E-2,1.0401314E-1,-1.3975166E-2,-5.640107E-2,7.5424607E-3,-3.4102026E-2],"split_indices":[19,10,10,0,10,10,10,0,0,17,16,0,0,0,0,0,0],"split_type":[0,0,0,0,0,0,0,0,0,0,0,0,0,0,0,0,0],"sum_hessian":[5.6319055E2,8.581903E1,4.773715E2,2.636204E1,5.9456993E1,4.2909842E2,4.8273083E1,3.8512836E1,2.0944157E1,3.738605E2,5.5237915E1,2.4991112E1,2.3281971E1,2.4160242E1,3.4970026E2,2.6592758E1,2.8645157E1],"tree_param":{"num_deleted":"0","num_feature":"20","num_nodes":"17","size_leaf_vector":"1"}},{"base_weights":[-3.8918838E-1,1.2348555E0,-7.0112354E-1,-4.883205E-3,1.7880601E0,-9.5803005E-1,1.3963377E0,7.296871E-2,1.14665486E-1,-1.060884E0,-2.7446422E-1,4.407045E-2,9.399837E-2,-1.3426797E-2,-5.581794E-2,7.143219E-3,-3.320789E-2],"categories":[],"categories_nodes":[],"categories_segments":[],"categories_sizes":[],"default_left":[0,0,0,0,0,0,0,0,0,0,0,0,0,0,0,0,0],"id":4,"left_children":[1,3,5,-1,7,9,11,-1,-1,13,15,-1,-1,-1,-1,-1,-1],"loss_changes":[2.8186548E2,6.632361E1,2.5241353E2,0E0,7.19223E0,2.8935272E1,1.1106155E1,0E0,0E0,1.5567169E1,9.156127E0,0E0,0E0,0E0,0E0,0E0,0E0],"parents":[2147483647,0,0,1,1,2,2,4,4,5,5,6,6,9,9,10,10],"right_children":[2,4,6,-1,8,10,12,-1,-1,14,16,-1,-1,-1,-1,-1,-1],"split_conditions":[5.0991E3,1.66E2,6.16E2,-4.883205E-3,3.62E2,3.77E2,8.35E2,7.296871E-2,1.14665486E-1,-4.62E1,9.3749E1,4.407045E-2,9.399837E-2,-1.3426797E-2,-5.581794E-2,7.143219E-3,-3.320789E-2],"split_indices":[19,10,10,0,10,10,10,0,0,17,16,0,0,0,0,0,0],"split_type":[0,0,0,0,0,0,0,0,0,0,0,0,0,0,0,0,0],"sum_hessian":[5.5368164E2,8.873539E1,4.6494623E2,2.6273386E1,6.2462E1,4.1469568E2,5.025055E1,4.019918E1,2.226282E1,3.5997885E2,5.4716835E1,2.5704752E1,2.4545795E1,2.393631E1,3.3604254E2,2.6727427E1,2.7989407E1],"tree_param":{"num_deleted":"0","num_feature":"20","num_nodes":"17","size_leaf_vector":"1"}},{"base_weights":[-3.7689632E-1,1.1413008E0,-6.8485475E-1,-1.3468261E-2,1.578323E0,-9.429426E-1,1.2835406E0,1.2893616E-1,1.1269404E0,-1.0549037E0,-3.027814E-1,4.09091E-2,8.565719E-2,3.904101E-2,7.7402614E-2,-1.5718348E-2,-5.5373937E-2,1.1459031E-2,-2.9173259E-2],"categories":[],"categories_nodes":[],"categories_segments":[],"categories_sizes":[],"default_left":[0,0,0,0,0,0,0,0,0,0,0,0,0,0,0,0,0,0,0],"id":5,"left_children":[1,3,5,-1,7,9,11,-1,13,15,17,-1,-1,-1,-1,-1,-1,-1,-1],"loss_changes":[2.5561522E2,5.73218E1,2.3172859E2,0E0,2.8977798E1,2.8474365E1,9.198479E0,0E0,6.1418304E0,1.2948944E1,9.272471E0,0E0,0E0,0E0,0E0,0E0,0E0,0E0,0E0],"parents":[2147483647,0,0,1,1,2,2,4,4,5,5,6,6,8,8,9,9,10,10],"right_children":[2,4,6,-1,8,10,12,-1,14,16,18,-1,-1,-1,-1,-1,-1,-1,-1],"split_conditions":[5.0991E3,1.48E2,6.16E2,-1.3468261E-2,1.6E1,3.59E2,8.35E2,1.2893616E-1,3.23E2,-4.62E1,4.153E0,4.09091E-2,8.565719E-2,3.904101E-2,7.7402614E-2,-1.5718348E-2,-5.5373937E-2,1.1459031E-2,-2.9173259E-2],"split_indices":[19,10,10,0,12,10,10,0,10,17,18,0,0,0,0,0,0,0,0],"split_type":[0,0,0,0,0,0,0,0,0,0,0,0,0,0,0,0,0,0,0],"sum_hessian":[5.440501E2,9.129094E1,4.5275916E2,2.1683214E1,6.960773E1,4.0073712E2,5.202204E1,2.0176832E1,4.9430893E1,3.4053183E2,6.0205284E1,2.636606E1,2.5655981E1,2.86978E1,2.0733091E1,2.3036308E1,3.174955E2,2.0857979E1,3.93473E1],"tree_param":{"num_deleted":"0","num_feature":"20","num_nodes":"19","size_leaf_vector":"1"}},{"base_weights":[-3.650213E-1,1.0597447E0,-6.690266E-1,-1.2937303E-2,1.4512138E0,-9.4899935E-1,1.0574522E0,1.1827357E-1,1.0409589E0,-1.0427105E0,-3.5065234E-1,3.1368557E-2,7.858525E-2,2.8532568E-2,6.6167876E-2,-1.5121855E-2,-5.4844428E-2,4.901284E-3,-3.839695E-2],"categories":[],"categories_nodes":[],"categories_segments":[],"categories_sizes":[],"default_left":[0,0,0,0,0,0,0,0,0,0,0,0,0,0,0,0,0,0,0],"id":6,"left_children":[1,3,5,-1,7,9,11,-1,13,15,17,-1,-1,-1,-1,-1,-1,-1,-1],"loss_changes":[2.325989E2,4.916844E1,2.1457487E2,0E0,2.493422E1,2.0981781E1,1.2754349E1,0E0,6.178257E0,1.2849487E1,1.0009399E1,0E0,0E0,0E0,0E0,0E0,0E0,0E0,0E0],"parents":[2147483647,0,0,1,1,2,2,4,4,5,5,6,6,8,8,9,9,10,10],"right_children":[2,4,6,-1,8,10,12,-1,14,16,18,-1,-1,-1,-1,-1,-1,-1,-1],"split_conditions":[5.0991E3,1.48E2,5.67E2,-1.2937303E-2,1.3E1,3.59E2,8.35E2,1.1827357E-1,2.52E2,-4.62E1,9.3749E1,3.1368557E-2,7.858525E-2,2.8532568E-2,6.6167876E-2,-1.5121855E-2,-5.4844428E-2,4.901284E-3,-3.839695E-2],"split_indices":[19,10,10,0,12,10,10,0,10,17,16,0,0,0,0,0,0,0,0],"split_type":[0,0,0,0,0,0,0,0,0,0,0,0,0,0,0,0,0,0,0],"sum_hessian":[5.343738E2,9.353276E1,4.4084103E2,2.1490515E1,7.2042244E1,3.7971524E2,6.112581E1,2.0838213E1,5.1204033E1,3.276561E2,5.2059135E1,3.4496002E1,2.6629808E1,2.034392E1,3.0860111E1,2.2793512E1,3.0486258E2,2.545467E1,2.6604464E1],"tree_param":{"num_deleted":"0","num_feature":"20","num_nodes":"19","size_leaf_vector":"1"}},{"base_weights":[-3.5367897E-1,9.875936E-1,-6.5361965E-1,-1.2423775E-2,1.3412507E0,-9.9543905E-1,7.0397365E-1,1.0752841E-1,9.6934307E-1,-9.9792285E-3,-1.0582176E0,8.709611E-2,1.2550229E0,3.3341013E-2,6.945673E-2,-5.5248708E-2,-3.6882956E-2,1.2232437E-2,-4.0386026E-3,8.278858E-2,4.073822E-2],"categories":[],"categories_nodes":[],"categories_segments":[],"categories_sizes":[],"default_left":[0,0,0,0,0,0,0,0,0,0,0,0,0,0,0,0,0,0,0,0,0],"id":7,"left_children":[1,3,5,-1,7,9,11,-1,13,-1,15,17,19,-1,-1,-1,-1,-1,-1,-1,-1],"loss_changes":[2.1214146E2,4.2506958E1,2.0035382E2,0E0,2.054068E1,1.698169E1,2.9506706E1,0E0,5.8455315E0,0E0,3.9620056E0,1.1353723E0,6.756729E0,0E0,0E0,0E0,0E0,0E0,0E0,0E0,0E0],"parents":[2147483647,0,0,1,1,2,2,4,4,5,5,6,6,8,8,10,10,11,11,12,12],"right_children":[2,4,6,-1,8,10,12,-1,14,-1,16,18,20,-1,-1,-1,-1,-1,-1,-1,-1],"split_conditions":[5.0991E3,1.48E2,4.54E2,-1.2423775E-2,1.3E1,-4.62E1,6.73E2,1.0752841E-1,3.39E2,-9.9792285E-3,3.11E2,-4.2E1,2E0,3.3341013E-2,6.945673E-2,-5.5248708E-2,-3.6882956E-2,1.2232437E-2,-4.0386026E-3,8.278858E-2,4.073822E-2],"split_indices":[19,10,10,0,12,17,10,0,10,0,10,17,1,0,0,0,0,0,0,0,0],"split_type":[0,0,0,0,0,0,0,0,0,0,0,0,0,0,0,0,0,0,0,0,0],"sum_hessian":[5.247142E2,9.547538E1,4.292388E2,2.130601E1,7.416937E1,3.4311493E2,8.612388E1,2.1846378E1,5.2322994E1,2.539226E1,3.1772266E2,4.118121E1,4.4942665E1,3.1913198E1,2.0409796E1,2.7514334E2,4.2579315E1,2.1007366E1,2.0173845E1,2.2081713E1,2.2860954E1],"tree_param":{"num_deleted":"0","num_feature":"20","num_nodes":"21","size_leaf_vector":"1"}},{"base_weights":[-3.426884E-1,9.2364216E-1,-6.384827E-1,-4.7104093E-3,1.2950299E0,-9.829098E-1,6.5982914E-1,1.0120266E-1,9.5246774E-1,-9.562953E-3,-1.0474699E0,8.268687E-2,1.1635883E0,3.3586692E-2,6.466114E-2,-5.4791123E-2,-3.6050197E-2,1.155959E-2,-3.855876E-3,7.616731E-2,3.8100906E-2],"categories":[],"categories_nodes":[],"categories_segments":[],"categories_sizes":[],"default_left":[0,0,0,0,0,0,0,0,0,0,0,0,0,0,0,0,0,0,0,0,0],"id":8,"left_children":[1,3,5,-1,7,9,11,-1,13,-1,15,17,19,-1,-1,-1,-1,-1,-1,-1,-1],"loss_changes":[1.9390498E2,3.7218018E1,1.8799713E2,0E0,1.604486E1,1.6743408E1,2.5617035E1,0E0,3.995636E0,0E0,4.044983E0,1.021553E0,5.6502533E0,0E0,0E0,0E0,0E0,0E0,0E0,0E0,0E0],"parents":[2147483647,0,0,1,1,2,2,4,4,5,5,6,6,8,8,10,10,11,11,12,12],"right_children":[2,4,6,-1,8,10,12,-1,14,-1,16,18,20,-1,-1,-1,-1,-1,-1,-1,-1],"split_conditions":[5.0991E3,1.66E2,4.54E2,-4.7104093E-3,1.3E1,-4.62E1,6.73E2,1.0120266E-1,3.39E2,-9.562953E-3,3.11E2,-4.2E1,2E0,3.3586692E-2,6.466114E-2,-5.4791123E-2,-3.6050197E-2,1.155959E-2,-3.855876E-3,7.616731E-2,3.8100906E-2],"split_indices":[19,10,10,0,12,17,10,0,10,0,10,17,1,0,0,0,0,0,0,0,0],"split_type":[0,0,0,0,0,0,0,0,0,0,0,0,0,0,0,0,0,0,0,0,0],"sum_hessian":[5.150946E2,9.7133194E1,4.1796143E2,2.6166325E1,7.096687E1,3.3052097E2,8.744047E1,2.1117376E1,4.9849495E1,2.5220728E1,3.0530023E2,4.1294594E1,4.6145878E1,2.896102E1,2.0888475E1,2.638631E2,4.143714E1,2.117247E1,2.0122122E1,2.2866667E1,2.327921E1],"tree_param":{"num_deleted":"0","num_feature":"20","num_nodes":"21","size_leaf_vector":"1"}},{"base_weights":[-3.3208707E-1,8.6655015E-1,-6.2368834E-1,-1.1738251E-2,1.165156E0,-9.706106E-1,6.195601E-1,9.167045E-2,8.494654E-1,-9.161807E-3,-1.0370226E0,7.8512385E-2,1.0824896E0,2.2564285E-2,5.3927112E-2,-5.435306E-2,-3.5225537E-2,1.0928572E-2,-3.6810364E-3,7.043137E-2,3.5694554E-2],"categories":[],"categories_nodes":[],"categories_segments":[],"categories_sizes":[],"default_left":[0,0,0,0,0,0,0,0,0,0,0,0,0,0,0,0,0,0,0,0,0],"id":9,"left_children":[1,3,5,-1,7,9,11,-1,13,-1,15,17,19,-1,-1,-1,-1,-1,-1,-1,-1],"loss_changes":[1.7758173E2,3.3005417E1,1.7657143E2,0E0,1.4996506E1,1.6510162E1,2.236187E1,0E0,4.5442696E0,0E0,4.1310425E0,9.1956866E-1,4.7909126E0,0E0,0E0,0E0,0E0,0E0,0E0,0E0,0E0],"parents":[2147483647,0,0,1,1,2,2,4,4,5,5,6,6,8,8,10,10,11,11,12,12],"right_children":[2,4,6,-1,8,10,12,-1,14,-1,16,18,20,-1,-1,-1,-1,-1,-1,-1,-1],"split_conditions":[5.0991E3,1.48E2,4.54E2,-1.1738251E-2,1.3E1,-4.62E1,6.73E2,9.167045E-2,2.5E2,-9.161807E-3,3.11E2,-4.2E1,2E0,2.2564285E-2,5.3927112E-2,-5.435306E-2,-3.5225537E-2,1.0928572E-2,-3.6810364E-3,7.043137E-2,3.5694554E-2],"split_indices":[19,10,10,0,12,17,10,0,10,0,10,17,1,0,0,0,0,0,0,0,0],"split_type":[0,0,0,0,0,0,0,0,0,0,0,0,0,0,0,0,0,0,0,0,0],"sum_hessian":[5.0552087E2,9.85316E1,4.0698926E2,2.1062584E1,7.746902E1,3.1836923E2,8.862003E1,2.331284E1,5.415618E1,2.5056808E1,2.933124E2,4.1401608E1,4.721843E1,2.0862736E1,3.3293446E1,2.5297395E2,4.0338455E1,2.1328829E1,2.0072777E1,2.3555153E1,2.3663279E1],"tree_param":{"num_deleted":"0","num_feature":"20","num_nodes":"21","size_leaf_vector":"1"}},{"base_weights":[-3.218962E-1,8.143581E-1,-6.092032E-1,-1.126497E-2,1.0892411E0,-9.585064E-1,5.8265865E-1,8.521207E-2,7.9632336E-1,-8.77542E-3,-1.0268388E0,7.455888E-2,1.0099771E0,2.7345464E-2,5.6988824E-2,-5.3932678E-2,-3.4408554E-2,1.0336241E-2,-3.5137755E-3,6.540447E-2,3.3490214E-2],"categories":[],"categories_nodes":[],"categories_segments":[],"categories_sizes":[],"default_left":[0,0,0,0,0,0,0,0,0,0,0,0,0,0,0,0,0,0,0,0,0],"id":10,"left_children":[1,3,5,-1,7,9,11,-1,13,-1,15,17,19,-1,-1,-1,-1,-1,-1,-1,-1],"loss_changes":[1.6277028E2,2.9038239E1,1.6597585E2,0E0,1.3028084E1,1.6280579E1,1.9612432E1,0E0,4.1709785E0,0E0,4.219452E0,8.2812047E-1,4.1105423E0,0E0,0E0,0E0,0E0,0E0,0E0,0E0,0E0],"parents":[2147483647,0,0,1,1,2,2,4,4,5,5,6,6,8,8,10,10,11,11,12,12],"right_children":[2,4,6,-1,8,10,12,-1,14,-1,16,18,20,-1,-1,-1,-1,-1,-1,-1,-1],"split_conditions":[5.0991E3,1.48E2,4.54E2,-1.126497E-2,1.3E1,-4.62E1,6.73E2,8.521207E-2,3.39E2,-8.77542E-3,3.11E2,-4.2E1,2E0,2.7345464E-2,5.6988824E-2,-5.3932678E-2,-3.4408554E-2,1.0336241E-2,-3.5137755E-3,6.540447E-2,3.3490214E-2],"split_indices":[19,10,10,0,12,17,10,0,10,0,10,17,1,0,0,0,0,0,0,0,0],"split_type":[0,0,0,0,0,0,0,0,0,0,0,0,0,0,0,0,0,0,0,0,0],"sum_hessian":[4.9608145E2,9.9750275E1,3.9633118E2,2.0896458E1,7.885381E1,3.066546E2,8.967656E1,2.3885818E1,5.4968E1,2.4900196E1,2.8175443E2,4.1502636E1,4.8173923E1,3.3345226E1,2.1622774E1,2.4247215E2,3.928227E1,2.1476936E1,2.0025702E1,2.4157768E1,2.4016155E1],"tree_param":{"num_deleted":"0","num_feature":"20","num_nodes":"21","size_leaf_vector":"1"}},{"base_weights":[-3.1202358E-1,7.671094E-1,-5.94998E-1,-4.480559E-3,1.0625843E0,-9.46565E-1,5.487064E-1,8.182505E-2,7.8728837E-1,-8.4033925E-3,-1.0168846E0,7.0813574E-2,9.446844E-1,5.4993648E-2,2.7391106E-2,-5.3528298E-2,-3.359896E-2,1.0207917E-2,-3.2313522E-3,6.0954817E-2,3.1463727E-2],"categories":[],"categories_nodes":[],"categories_segments":[],"categories_sizes":[],"default_left":[0,0,0,0,0,0,0,0,0,0,0,0,0,0,0,0,0,0,0,0,0],"id":11,"left_children":[1,3,5,-1,7,9,11,-1,13,-1,15,17,19,-1,-1,-1,-1,-1,-1,-1,-1],"loss_changes":[1.4940256E2,2.5856693E1,1.5612494E2,0E0,1.0679527E1,1.6053528E1,1.72713E1,0E0,3.3736153E0,0E0,4.309601E0,7.8252745E-1,3.5625877E0,0E0,0E0,0E0,0E0,0E0,0E0,0E0,0E0],"parents":[2147483647,0,0,1,1,2,2,4,4,5,5,6,6,8,8,10,10,11,11,12,12],"right_children":[2,4,6,-1,8,10,12,-1,14,-1,16,18,20,-1,-1,-1,-1,-1,-1,-1,-1],"split_conditions":[5.0991E3,1.66E2,4.54E2,-4.480559E-3,1.3E1,-4.62E1,6.73E2,8.182505E-2,-3.83E1,-8.4033925E-3,3.11E2,9.3749E1,2E0,5.4993648E-2,2.7391106E-2,-5.3528298E-2,-3.359896E-2,1.0207917E-2,-3.2313522E-3,6.0954817E-2,3.1463727E-2],"split_indices":[19,10,10,0,12,17,10,0,17,0,10,16,1,0,0,0,0,0,0,0,0],"split_type":[0,0,0,0,0,0,0,0,0,0,0,0,0,0,0,0,0,0,0,0,0],"sum_hessian":[4.8676102E2,1.0076795E2,3.8599307E2,2.6020119E1,7.474783E1,2.9537054E2,9.062254E1,2.2628689E1,5.211914E1,2.4750591E1,2.7061993E2,4.159805E1,4.9024494E1,2.1049456E1,3.1069685E1,2.3235243E2,3.8267517E1,2.0705545E1,2.0892504E1,2.4683933E1,2.4340559E1],"tree_param":{"num_deleted":"0","num_feature":"20","num_nodes":"21","size_leaf_vector":"1"}},{"base_weights":[-3.0241334E-1,-6.190314E-1,6.058945E-1,5.190467E-1,-9.523604E-1,7.339731E-2,3.1457937E-1,6.939601E-2,1.9530234E-1,-8.036141E-3,-1.0260986E0,-1.6092924E-2,7.385999E-1,-1.7309655E-2,2.526479E-2,-5.3138353E-2,-3.5400618E-2,4.829976E-2,2.1212412E-2],"categories":[],"categories_nodes":[],"categories_segments":[],"categories_sizes":[],"default_left":[0,0,0,0,0,0,0,0,0,0,0,0,0,0,0,0,0,0,0],"id":12,"left_children":[1,3,5,7,9,-1,11,-1,13,-1,15,-1,17,-1,-1,-1,-1,-1,-1],"loss_changes":[1.3802444E2,1.3532188E2,3.0734154E1,2.2559141E1,1.5902573E1,0E0,2.563712E1,0E0,1.0295803E1,0E0,2.1822815E0,0E0,3.6496277E0,0E0,0E0,0E0,0E0,0E0,0E0],"parents":[2147483647,0,0,1,1,2,2,3,3,4,4,6,6,8,8,10,10,12,12],"right_children":[2,4,6,8,10,-1,12,-1,14,-1,16,-1,18,-1,-1,-1,-1,-1,-1],"split_conditions":[4.03E2,5.0991E3,1.299E0,1.3E1,-4.62E1,7.339731E-2,6.16E2,6.939601E-2,1.66E2,-8.036141E-3,3.11E2,-1.6092924E-2,6E0,-1.7309655E-2,2.526479E-2,-5.3138353E-2,-3.5400618E-2,4.829976E-2,2.1212412E-2],"split_indices":[10,19,18,12,17,0,10,0,10,0,10,0,8,0,0,0,0,0,0],"split_type":[0,0,0,0,0,0,0,0,0,0,0,0,0,0,0,0,0,0,0],"sum_hessian":[4.7763608E2,3.5441315E2,1.2322292E2,8.016167E1,2.742515E2,3.0103235E1,9.311969E1,2.0868141E1,5.9293526E1,2.3639738E1,2.5061174E2,3.7329914E1,5.5789772E1,2.1543917E1,3.774961E1,2.2260863E2,2.8003113E1,3.1169468E1,2.4620306E1],"tree_param":{"num_deleted":"0","num_feature":"20","num_nodes":"19","size_leaf_vector":"1"}},{"base_weights":[-2.9320496E-1,-6.0564697E-1,5.721835E-1,4.9102697E-1,-9.411647E-1,6.855835E-2,2.9818997E-1,6.497632E-2,1.8526377E-1,-7.6926462E-3,-1.0171759E0,-1.5479388E-2,6.936365E-1,-1.7404107E-2,2.3436895E-2,-5.2761365E-2,-3.462505E-2,2.137116E-2,4.6729308E-2],"categories":[],"categories_nodes":[],"categories_segments":[],"categories_sizes":[],"default_left":[0,0,0,0,0,0,0,0,0,0,0,0,0,0,0,0,0,0,0],"id":13,"left_children":[1,3,5,7,9,-1,11,-1,13,-1,15,-1,17,-1,-1,-1,-1,-1,-1],"loss_changes":[1.2735153E2,1.2762859E2,2.6981228E1,1.9936842E1,1.5701279E1,0E0,2.291401E1,0E0,9.293529E0,0E0,2.2525024E0,0E0,3.2904663E0,0E0,0E0,0E0,0E0,0E0,0E0],"parents":[2147483647,0,0,1,1,2,2,3,3,4,4,6,6,8,8,10,10,12,12],"right_children":[2,4,6,8,10,-1,12,-1,14,-1,16,-1,18,-1,-1,-1,-1,-1,-1],"split_conditions":[4.03E2,5.0991E3,1.299E0,1.3E1,-4.62E1,6.855835E-2,6.16E2,6.497632E-2,1.63E2,-7.6926462E-3,3.11E2,-1.5479388E-2,8.35E2,-1.7404107E-2,2.3436895E-2,-5.2761365E-2,-3.462505E-2,2.137116E-2,4.6729308E-2],"split_indices":[10,19,18,12,17,0,10,0,10,0,10,0,10,0,0,0,0,0,0],"split_type":[0,0,0,0,0,0,0,0,0,0,0,0,0,0,0,0,0,0,0],"sum_hessian":[4.6872137E2,3.446046E2,1.2411677E2,8.06215E1,2.639831E2,3.0671686E1,9.344508E1,2.1231373E1,5.939013E1,2.350864E1,2.4047447E2,3.6919353E1,5.6525726E1,2.0532011E1,3.885812E1,2.1323369E2,2.7240782E1,2.8172855E1,2.8352873E1],"tree_param":{"num_deleted":"0","num_feature":"20","num_nodes":"19","size_leaf_vector":"1"}},{"base_weights":[-2.8430167E-1,-5.9246206E-1,5.413742E-1,4.6492222E-1,-9.300631E-1,6.424268E-2,2.831E-1,6.1009433E-2,1.7575704E-1,-7.36229E-3,-1.0084208E0,-1.4884089E-2,6.5324E-1,-1.6081348E-2,2.2488471E-2,-5.2395996E-2,-3.3854824E-2,4.3119162E-2,1.8168708E-2],"categories":[],"categories_nodes":[],"categories_segments":[],"categories_sizes":[],"default_left":[0,0,0,0,0,0,0,0,0,0,0,0,0,0,0,0,0,0,0],"id":14,"left_children":[1,3,5,7,9,-1,11,-1,13,-1,15,-1,17,-1,-1,-1,-1,-1,-1],"loss_changes":[1.17596985E2,1.20420166E2,2.3791302E1,1.7696785E1,1.5500061E1,0E0,2.0540068E1,0E0,8.386678E0,0E0,2.3230743E0,0E0,3.2099094E0,0E0,0E0,0E0,0E0,0E0,0E0],"parents":[2147483647,0,0,1,1,2,2,3,3,4,4,6,6,8,8,10,10,12,12],"right_children":[2,4,6,8,10,-1,12,-1,14,-1,16,-1,18,-1,-1,-1,-1,-1,-1],"split_conditions":[4.03E2,5.0991E3,1.299E0,1.3E1,-4.62E1,6.424268E-2,6.16E2,6.1009433E-2,1.66E2,-7.36229E-3,3.11E2,-1.4884089E-2,6E0,-1.6081348E-2,2.2488471E-2,-5.2395996E-2,-3.3854824E-2,4.3119162E-2,1.8168708E-2],"split_indices":[10,19,18,12,17,0,10,0,10,0,10,0,8,0,0,0,0,0,0],"split_type":[0,0,0,0,0,0,0,0,0,0,0,0,0,0,0,0,0,0,0],"sum_hessian":[4.59918E2,3.351246E2,1.2479342E2,8.101239E1,2.5411221E2,3.1149717E1,9.36437E1,2.1537973E1,5.9474415E1,2.3383455E1,2.3072874E2,3.6526386E1,5.7117313E1,2.1064543E1,3.8409874E1,2.0421973E2,2.6509027E1,3.2031162E1,2.508615E1],"tree_param":{"num_deleted":"0","num_feature":"20","num_nodes":"19","size_leaf_vector":"1"}},{"base_weights":[-2.756134E-1,-7.2743607E-1,2.6529354E-1,3.6827224E-1,-9.679247E-1,1.038003E0,-6.177959E-2,8.629234E-4,3.548075E-2,-7.003943E-1,-5.3095024E-2,3.6126222E-2,6.0637724E-2,-5.249896E-1,6.231197E-1,-1.6126318E-2,-4.960495E-2,-2.639525E-3,-3.4314282E-2,1.8589986E-2,4.27714E-2],"categories":[],"categories_nodes":[],"categories_segments":[],"categories_sizes":[],"default_left":[0,0,0,0,0,0,0,0,0,0,0,0,0,0,0,0,0,0,0,0,0],"id":15,"left_children":[1,3,5,7,9,11,13,-1,-1,15,-1,-1,-1,17,19,-1,-1,-1,-1,-1,-1],"loss_changes":[1.107538E2,6.537877E1,5.2285904E1,5.395772E0,4.350464E0,2.5146637E0,4.6684525E1,0E0,0E0,5.80974E0,0E0,0E0,0E0,6.644165E0,3.150566E0,0E0,0E0,0E0,0E0,0E0,0E0],"parents":[2147483647,0,0,1,1,2,2,3,3,4,4,5,5,6,6,9,9,13,13,14,14],"right_children":[2,4,6,8,10,12,14,-1,-1,16,-1,-1,-1,18,20,-1,-1,-1,-1,-1,-1],"split_conditions":[2.52E2,1.048E0,1.291E0,1.69E2,-1.7E0,-1.8E0,6.16E2,8.629234E-4,3.548075E-2,6E0,-5.3095024E-2,3.6126222E-2,6.0637724E-2,4.076E0,8.35E2,-1.6126318E-2,-4.960495E-2,-2.639525E-3,-3.4314282E-2,1.8589986E-2,4.27714E-2],"split_indices":[10,18,18,10,15,15,10,0,0,8,0,0,0,18,10,0,0,0,0,0,0],"split_type":[0,0,0,0,0,0,0,0,0,0,0,0,0,0,0,0,0,0,0,0,0],"sum_hessian":[4.513876E2,2.4575891E2,2.0562868E2,4.4136036E1,2.0162288E2,6.0507126E1,1.4512155E2,2.2277708E1,2.185833E1,5.46105E1,1.4701237E2,2.3399183E1,3.710794E1,8.671088E1,5.8410683E1,2.470885E1,2.9901648E1,2.2415644E1,6.429523E1,2.9306374E1,2.910431E1],"tree_param":{"num_deleted":"0","num_feature":"20","num_nodes":"21","size_leaf_vector":"1"}},{"base_weights":[-2.6713124E-1,-7.1412665E-1,2.5305355E-1,3.486651E-1,-9.580467E-1,9.769059E-1,-5.92747E-2,8.211932E-4,3.3431966E-2,-6.8525136E-1,-5.277676E-2,3.419582E-2,5.6885976E-2,-5.094935E-1,5.880478E-1,-1.5510283E-2,-4.9184985E-2,-2.5178269E-3,-3.3509023E-2,4.461958E-2,1.9979144E-2],"categories":[],"categories_nodes":[],"categories_segments":[],"categories_sizes":[],"default_left":[0,0,0,0,0,0,0,0,0,0,0,0,0,0,0,0,0,0,0,0,0],"id":16,"left_children":[1,3,5,7,9,11,13,-1,-1,15,-1,-1,-1,17,19,-1,-1,-1,-1,-1,-1],"loss_changes":[1.0347704E2,6.234169E1,4.6642265E1,4.8135962E0,4.4575653E0,2.1509628E0,4.2524925E1,0E0,0E0,5.754896E0,0E0,0E0,0E0,6.3102913E0,3.0790367E0,0E0,0E0,0E0,0E0,0E0,0E0],"parents":[2147483647,0,0,1,1,2,2,3,3,4,4,5,5,6,6,9,9,13,13,14,14],"right_children":[2,4,6,8,10,12,14,-1,-1,16,-1,-1,-1,18,20,-1,-1,-1,-1,-1,-1],"split_conditions":[2.52E2,1.048E0,1.291E0,1.69E2,-1.7E0,-1.8E0,6.16E2,8.211932E-4,3.3431966E-2,6E0,-5.277676E-2,3.419582E-2,5.6885976E-2,4.076E0,2E0,-1.5510283E-2,-4.9184985E-2,-2.5178269E-3,-3.3509023E-2,4.461958E-2,1.9979144E-2],"split_indices":[10,18,18,10,15,15,10,0,0,8,0,0,0,18,11,0,0,0,0,0,0],"split_type":[0,0,0,0,0,0,0,0,0,0,0,0,0,0,0,0,0,0,0,0,0],"sum_hessian":[4.4324664E2,2.3819368E2,2.0505295E2,4.438275E1,1.9381093E2,6.1166225E1,1.4388673E2,2.2289774E1,2.2092976E1,5.314053E1,1.4067041E2,2.3536848E1,3.7629375E1,8.4989006E1,5.8897728E1,2.4452118E1,2.868841E1,2.2373554E1,6.2615448E1,2.1095871E1,3.7801857E1],"tree_param":{"num_deleted":"0","num_feature":"20","num_nodes":"21","size_leaf_vector":"1"}},{"base_weights":[-2.5881478E-1,-7.009045E-1,2.4139379E-1,2.2200382E-1,-9.788249E-1,9.2092055E-1,-5.680482E-2,3.387677E-2,-1.1460708E-2,-7.612984E-1,-5.2250363E-2,3.6979366E-2,5.891229E-2,-4.942465E-1,5.5472416E-1,-4.8543017E-2,-2.755851E-2,-2.4015536E-3,-3.2709796E-2,1.5934E-2,3.878966E-2],"categories":[],"categories_nodes":[],"categories_segments":[],"categories_sizes":[],"default_left":[0,0,0,0,0,0,0,0,0,0,0,0,0,0,0,0,0,0,0,0,0],"id":17,"left_children":[1,3,5,7,9,11,13,-1,-1,15,-1,-1,-1,17,19,-1,-1,-1,-1,-1,-1],"loss_changes":[9.66753E1,5.9703346E1,4.1691505E1,1.1355507E1,1.7731628E0,2.0557137E0,3.873086E1,0E0,0E0,1.4599514E0,0E0,0E0,0E0,5.987896E0,2.9056892E0,0E0,0E0,0E0,0E0,0E0,0E0],"parents":[2147483647,0,0,1,1,2,2,3,3,4,4,5,5,6,6,9,9,13,13,14,14],"right_children":[2,4,6,8,10,12,14,-1,-1,16,-1,-1,-1,18,20,-1,-1,-1,-1,-1,-1],"split_conditions":[2.52E2,5.0991E3,1.291E0,8.59E-1,-1.7E0,4.59E2,6.16E2,3.387677E-2,-1.1460708E-2,1.19E2,-5.2250363E-2,3.6979366E-2,5.891229E-2,4.076E0,8.35E2,-4.8543017E-2,-2.755851E-2,-2.4015536E-3,-3.2709796E-2,1.5934E-2,3.878966E-2],"split_indices":[10,19,18,18,15,10,10,0,0,10,0,0,0,18,10,0,0,0,0,0,0],"split_type":[0,0,0,0,0,0,0,0,0,0,0,0,0,0,0,0,0,0,0,0,0],"sum_hessian":[4.354086E2,2.3091884E2,2.0448976E2,5.3490543E1,1.774283E2,6.1730873E1,1.4275888E2,2.6368446E1,2.7122097E1,4.4306328E1,1.3312196E2,3.8485115E1,2.3245756E1,8.333739E1,5.9421494E1,2.0370457E1,2.3935871E1,2.2333443E1,6.100395E1,2.9918196E1,2.95033E1],"tree_param":{"num_deleted":"0","num_feature":"20","num_nodes":"21","size_leaf_vector":"1"}},{"base_weights":[-2.5073475E-1,-6.873744E-1,2.3054229E-1,2.1023461E-1,-9.7008914E-1,8.7023944E-1,-5.4494426E-2,3.1774964E-2,-1.0968104E-2,-7.4679446E-1,-5.195554E-2,3.492046E-2,5.573343E-2,-4.7924992E-1,5.2442354E-1,-4.709255E-2,-2.6189668E-2,-3.314211E-2,-4.458229E-3,4.0380534E-2,1.7432734E-2],"categories":[],"categories_nodes":[],"categories_segments":[],"categories_sizes":[],"default_left":[0,0,0,0,0,0,0,0,0,0,0,0,0,0,0,0,0,0,0,0,0],"id":18,"left_children":[1,3,5,7,9,11,13,-1,-1,15,-1,-1,-1,17,19,-1,-1,-1,-1,-1,-1],"loss_changes":[9.027116E1,5.7322876E1,3.7377098E1,1.0139006E1,1.8648529E0,1.8744087E0,3.530786E1,0E0,0E0,1.4211636E0,0E0,0E0,0E0,5.8674526E0,2.745325E0,0E0,0E0,0E0,0E0,0E0,0E0],"parents":[2147483647,0,0,1,1,2,2,3,3,4,4,5,5,6,6,9,9,13,13,14,14],"right_children":[2,4,6,8,10,12,14,-1,-1,16,-1,-1,-1,18,20,-1,-1,-1,-1,-1,-1],"split_conditions":[2.52E2,5.0991E3,1.291E0,8.59E-1,-1.7E0,4.59E2,6.16E2,3.1774964E-2,-1.0968104E-2,1.334E0,-5.195554E-2,3.492046E-2,5.573343E-2,4.54E2,2E0,-4.709255E-2,-2.6189668E-2,-3.314211E-2,-4.458229E-3,4.0380534E-2,1.7432734E-2],"split_indices":[10,19,18,18,15,10,10,0,0,18,0,0,0,10,11,0,0,0,0,0,0],"split_type":[0,0,0,0,0,0,0,0,0,0,0,0,0,0,0,0,0,0,0,0,0],"sum_hessian":[4.278127E2,2.240839E2,2.0372882E2,5.3734657E1,1.7034923E2,6.2163822E1,1.41565E2,2.6762619E1,2.697204E1,4.3013706E1,1.2733552E2,3.8767868E1,2.3395952E1,8.175387E1,5.981113E1,2.1224958E1,2.178875E1,5.5114983E1,2.6638884E1,2.15295E1,3.828163E1],"tree_param":{"num_deleted":"0","num_feature":"20","num_nodes":"21","size_leaf_vector":"1"}},{"base_weights":[-2.4283731E-1,-6.739867E-1,2.2016588E-1,1.9917522E-1,-9.615299E-1,8.2336307E-1,-5.224853E-2,2.9839957E-2,-1.0494692E-2,-7.3270506E-1,-5.1668555E-2,2.9443456E-2,4.959218E-2,-4.646507E-1,4.9551004E-1,-4.6644974E-2,-2.5424078E-2,-1.1818322E-3,-3.1355124E-2,1.3548607E-2,3.526897E-2],"categories":[],"categories_nodes":[],"categories_segments":[],"categories_sizes":[],"default_left":[0,0,0,0,0,0,0,0,0,0,0,0,0,0,0,0,0,0,0,0,0],"id":19,"left_children":[1,3,5,7,9,11,13,-1,-1,15,-1,-1,-1,17,19,-1,-1,-1,-1,-1,-1],"loss_changes":[8.428609E1,5.504937E1,3.3562107E1,9.064239E0,1.9477081E0,1.9255676E0,3.218659E1,0E0,0E0,1.4446888E0,0E0,0E0,0E0,5.804035E0,2.6949377E0,0E0,0E0,0E0,0E0,0E0,0E0],"parents":[2147483647,0,0,1,1,2,2,3,3,4,4,5,5,6,6,9,9,13,13,14,14],"right_children":[2,4,6,8,10,12,14,-1,-1,16,-1,-1,-1,18,20,-1,-1,-1,-1,-1,-1],"split_conditions":[2.52E2,5.0991E3,1.291E0,8.59E-1,-1.7E0,9.2963E1,6.16E2,2.9839957E-2,-1.0494692E-2,1.334E0,-5.1668555E-2,2.9443456E-2,4.959218E-2,4.076E0,4.864E0,-4.6644974E-2,-2.5424078E-2,-1.1818322E-3,-3.1355124E-2,1.3548607E-2,3.526897E-2],"split_indices":[10,19,18,18,15,16,10,0,0,18,0,0,0,18,18,0,0,0,0,0,0],"split_type":[0,0,0,0,0,0,0,0,0,0,0,0,0,0,0,0,0,0,0,0,0],"sum_hessian":[4.2048187E2,2.1749474E2,2.0298715E2,5.3956436E1,1.635383E2,6.252278E1,1.4046437E2,2.7128262E1,2.6828175E1,4.175173E1,1.2178657E2,2.8019695E1,3.450309E1,8.021956E1,6.024481E1,2.0388027E1,2.1363707E1,2.1903315E1,5.8316242E1,3.0212158E1,3.0032652E1],"tree_param":{"num_deleted":"0","num_feature":"20","num_nodes":"21","size_leaf_vector":"1"}},{"base_weights":[-2.3516984E-1,-5.515032E-1,3.6564532E-1,2.9956678E-1,-8.926757E-1,4.6481434E-2,1.4834882E-1,4.922022E-2,3.805641E-2,-5.5107777E-3,-9.823444E-1,-2.7876133E-1,4.603885E-1,-1.6841447E-2,1.2476282E-2,-5.0940603E-2,-3.52731E-2,-2.4924925E-2,-1.2838914E-3,3.226446E-2,1.0381956E-2],"categories":[],"categories_nodes":[],"categories_segments":[],"categories_sizes":[],"default_left":[0,0,0,0,0,0,0,0,0,0,0,0,0,0,0,0,0,0,0,0,0],"id":20,"left_children":[1,3,5,7,9,-1,11,-1,13,-1,15,17,19,-1,-1,-1,-1,-1,-1,-1,-1],"loss_changes":[7.895323E1,7.919907E1,1.7450285E1,1.4028132E1,1.3524307E1,0E0,1.409431E1,0E0,4.67223E0,0E0,1.0401917E0,2.4820137E0,2.7134495E0,0E0,0E0,0E0,0E0,0E0,0E0,0E0,0E0],"parents":[2147483647,0,0,1,1,2,2,3,3,4,4,6,6,8,8,10,10,11,11,12,12],"right_children":[2,4,6,8,10,-1,12,-1,14,-1,16,18,20,-1,-1,-1,-1,-1,-1,-1,-1],"split_conditions":[3.62E2,5.0991E3,1.299E0,1.3E1,-4.62E1,4.6481434E-2,6.16E2,4.922022E-2,1.63E2,-5.5107777E-3,2.78E2,4.75E2,6E0,-1.6841447E-2,1.2476282E-2,-5.0940603E-2,-3.52731E-2,-2.4924925E-2,-1.2838914E-3,3.226446E-2,1.0381956E-2],"split_indices":[10,19,18,12,17,0,10,0,10,0,10,10,8,0,0,0,0,0,0,0,0],"split_type":[0,0,0,0,0,0,0,0,0,0,0,0,0,0,0,0,0,0,0,0,0],"sum_hessian":[4.1335577E2,2.7083914E2,1.4251662E2,7.7538315E1,1.9330084E2,3.872624E1,1.0379038E2,2.0662777E1,5.6875534E1,2.0103596E1,1.7319724E2,4.38612E1,5.9929184E1,2.0298409E1,3.6577126E1,1.5067284E2,2.2524399E1,2.2958242E1,2.0902956E1,3.3713066E1,2.6216118E1],"tree_param":{"num_deleted":"0","num_feature":"20","num_nodes":"21","size_leaf_vector":"1"}},{"base_weights":[-2.2781007E-1,-6.486864E-1,2.0217928E-1,1.781975E-1,-9.44895E-1,7.4492055E-1,-4.8003666E-2,2.746646E-2,-1.0493075E-2,-7.568763E-1,-5.229562E-2,2.6142815E-2,4.5362215E-2,-6.222973E-1,2.937869E-1,-4.5747034E-2,-2.4931407E-2,-1.5358803E-2,-4.5020614E-2,4.725841E-3,3.288639E-2],"categories":[],"categories_nodes":[],"categories_segments":[],"categories_sizes":[],"default_left":[0,0,0,0,0,0,0,0,0,0,0,0,0,0,0,0,0,0,0,0,0],"id":21,"left_children":[1,3,5,7,9,11,13,-1,-1,15,-1,-1,-1,17,19,-1,-1,-1,-1,-1,-1],"loss_changes":[7.381521E1,5.0623055E1,2.7486004E1,8.061144E0,2.0920105E0,1.8270531E0,2.7528551E1,0E0,0E0,1.8574905E0,0E0,0E0,0E0,4.306875E0,6.3209367E0,0E0,0E0,0E0,0E0,0E0,0E0],"parents":[2147483647,0,0,1,1,2,2,3,3,4,4,5,5,6,6,9,9,13,13,14,14],"right_children":[2,4,6,8,10,12,14,-1,-1,16,-1,-1,-1,18,20,-1,-1,-1,-1,-1,-1],"split_conditions":[2.52E2,5.0991E3,1.291E0,8.59E-1,1.1E0,9.2963E1,4.54E2,2.746646E-2,-1.0493075E-2,1.406E0,-5.229562E-2,2.6142815E-2,4.5362215E-2,9.3749E1,8.35E2,-4.5747034E-2,-2.4931407E-2,-1.5358803E-2,-4.5020614E-2,4.725841E-3,3.288639E-2],"split_indices":[10,19,18,18,15,16,10,0,0,18,0,0,0,16,10,0,0,0,0,0,0],"split_type":[0,0,0,0,0,0,0,0,0,0,0,0,0,0,0,0,0,0,0,0,0],"sum_hessian":[4.0615643E2,2.0499622E2,2.0116022E2,5.4171547E1,1.5082468E2,6.284601E1,1.3831422E2,2.7477268E1,2.6694279E1,5.5680927E1,9.5143745E1,2.832185E1,3.452416E1,5.1298767E1,8.701545E1,3.296274E1,2.2718185E1,2.5035976E1,2.626279E1,5.7042454E1,2.9972996E1],"tree_param":{"num_deleted":"0","num_feature":"20","num_nodes":"21","size_leaf_vector":"1"}},{"base_weights":[-2.2061618E-1,-6.586027E-1,1.7166612E-1,2.776562E-2,-8.504981E-1,7.0345396E-1,-8.5801266E-2,-5.5547255E-1,-5.0776124E-2,8.7321335E-1,1.38270855E-2,-6.536818E-1,2.786975E-1,-4.641236E-2,-7.66947E-3,3.190851E-2,5.167796E-2,-2.0689406E-2,-4.961444E-2,4.4823135E-3,3.1180669E-2],"categories":[],"categories_nodes":[],"categories_segments":[],"categories_sizes":[],"default_left":[0,0,0,0,0,0,0,0,0,0,0,0,0,0,0,0,0,0,0,0,0],"id":22,"left_children":[1,3,5,-1,7,9,11,13,-1,15,-1,17,19,-1,-1,-1,-1,-1,-1,-1,-1],"loss_changes":[6.892253E1,4.4598404E1,2.9095165E1,0E0,7.4188004E0,4.7798347E0,2.9942186E1,9.004194E0,0E0,1.1912766E0,0E0,4.179287E0,5.699822E0,0E0,0E0,0E0,0E0,0E0,0E0,0E0,0E0],"parents":[2147483647,0,0,1,1,2,2,4,4,5,5,6,6,7,7,9,9,11,11,12,12],"right_children":[2,4,6,-1,8,10,12,14,-1,16,-1,18,20,-1,-1,-1,-1,-1,-1,-1,-1],"split_conditions":[2.38E2,8.59E-1,1.291E0,2.776562E-2,-2E-1,-3.46E1,4.54E2,1.39E2,-5.0776124E-2,2E0,1.38270855E-2,1E0,8.35E2,-4.641236E-2,-7.66947E-3,3.190851E-2,5.167796E-2,-2.0689406E-2,-4.961444E-2,4.4823135E-3,3.1180669E-2],"split_indices":[10,18,18,0,15,17,10,10,0,9,0,7,10,0,0,0,0,0,0,0,0],"split_type":[0,0,0,0,0,0,0,0,0,0,0,0,0,0,0,0,0,0,0,0,0],"sum_hessian":[3.9948727E2,1.8842747E2,2.110598E2,2.5462137E1,1.6296535E2,6.8285934E1,1.4277388E2,6.002338E1,1.02941956E2,4.810988E1,2.0176054E1,5.5505005E1,8.726887E1,3.0467815E1,2.9555565E1,2.1530024E1,2.6579855E1,3.378869E1,2.1716318E1,5.7185135E1,3.0083735E1],"tree_param":{"num_deleted":"0","num_feature":"20","num_nodes":"21","size_leaf_vector":"1"}},{"base_weights":[-2.1350986E-1,-6.2269986E-1,1.8497054E-1,1.6276166E-1,-9.278832E-1,6.7142063E-1,-4.395701E-2,2.4226476E-2,-9.345371E-3,-3.380085E-2,-5.060193E-2,2.5750196E-2,4.5115493E-2,-5.9208155E-1,2.6447007E-1,-1.39842825E-2,-4.3995254E-2,4.2519034E-3,2.9583246E-2],"categories":[],"categories_nodes":[],"categories_segments":[],"categories_sizes":[],"default_left":[0,0,0,0,0,0,0,0,0,0,0,0,0,0,0,0,0,0,0],"id":23,"left_children":[1,3,5,7,9,11,13,-1,-1,-1,-1,-1,-1,15,17,-1,-1,-1,-1],"loss_changes":[6.4364624E1,4.6807E1,2.234666E1,6.3140025E0,2.2900772E0,1.8535957E0,2.335284E1,0E0,0E0,0E0,0E0,0E0,0E0,4.2240562E0,5.1451426E0,0E0,0E0,0E0,0E0],"parents":[2147483647,0,0,1,1,2,2,3,3,4,4,5,5,6,6,13,13,14,14],"right_children":[2,4,6,8,10,12,14,-1,-1,-1,-1,-1,-1,16,18,-1,-1,-1,-1],"split_conditions":[2.52E2,5.0991E3,1.291E0,8.59E-1,-1.7E0,4.59E2,4.54E2,2.4226476E-2,-9.345371E-3,-3.380085E-2,-5.060193E-2,2.5750196E-2,4.5115493E-2,9.3749E1,8.35E2,-1.39842825E-2,-4.3995254E-2,4.2519034E-3,2.9583246E-2],"split_indices":[10,19,18,18,15,10,10,0,0,0,0,0,0,16,10,0,0,0,0],"split_type":[0,0,0,0,0,0,0,0,0,0,0,0,0,0,0,0,0,0,0],"sum_hessian":[3.9303735E2,1.9363525E2,1.994021E2,5.4313442E1,1.3932181E2,6.3191998E1,1.3621011E2,2.8084352E1,2.622909E1,3.7154922E1,1.0216689E2,3.959723E1,2.3594767E1,4.8715374E1,8.7494736E1,2.4306013E1,2.440936E1,5.732041E1,3.0174324E1],"tree_param":{"num_deleted":"0","num_feature":"20","num_nodes":"19","size_leaf_vector":"1"}},{"base_weights":[-2.0656651E-1,-6.325293E-1,1.5712391E-1,2.4735816E-2,-8.275566E-1,6.3604623E-1,-7.987407E-2,-5.261664E-1,-5.0243475E-2,1.6660104E-2,4.3163862E-2,-6.252645E-1,2.5104275E-1,-4.5482524E-2,-6.3803033E-3,-1.9270984E-2,-4.8909593E-2,4.0338463E-3,2.8084148E-2],"categories":[],"categories_nodes":[],"categories_segments":[],"categories_sizes":[],"default_left":[0,0,0,0,0,0,0,0,0,0,0,0,0,0,0,0,0,0,0],"id":24,"left_children":[1,3,5,-1,7,9,11,13,-1,-1,-1,15,17,-1,-1,-1,-1,-1,-1],"loss_changes":[6.0177235E1,3.9719467E1,2.3885832E1,0E0,7.6375046E0,4.503826E0,2.5670506E1,8.855778E0,0E0,0E0,0E0,4.166027E0,4.6486897E0,0E0,0E0,0E0,0E0,0E0,0E0],"parents":[2147483647,0,0,1,1,2,2,4,4,5,5,6,6,7,7,11,11,12,12],"right_children":[2,4,6,-1,8,10,12,14,-1,-1,-1,16,18,-1,-1,-1,-1,-1,-1],"split_conditions":[2.38E2,8.59E-1,1.291E0,2.4735816E-2,-2E-1,9.2963E1,4.54E2,1.39E2,-5.0243475E-2,1.6660104E-2,4.3163862E-2,1E0,8.35E2,-4.5482524E-2,-6.3803033E-3,-1.9270984E-2,-4.8909593E-2,4.0338463E-3,2.8084148E-2],"split_indices":[10,18,18,0,15,16,10,10,0,0,0,7,10,0,0,0,0,0,0],"split_type":[0,0,0,0,0,0,0,0,0,0,0,0,0,0,0,0,0,0,0],"sum_hessian":[3.868027E2,1.7780919E2,2.0899353E2,2.5999134E1,1.5181006E2,6.862774E1,1.4036578E2,5.770038E1,9.410967E1,3.04764E1,3.815134E1,5.266994E1,8.769584E1,2.8752832E1,2.8947548E1,3.260445E1,2.0065493E1,5.7448696E1,3.0247145E1],"tree_param":{"num_deleted":"0","num_feature":"20","num_nodes":"19","size_leaf_vector":"1"}},{"base_weights":[-1.999443E-1,-6.194585E-1,1.5005195E-1,2.3322154E-2,-8.1582344E-1,6.047171E-1,-7.695222E-2,-5.110903E-1,-4.9982153E-2,1.5802583E-2,4.1118965E-2,-6.109616E-1,2.3836E-1,-4.4875037E-2,-6.0957004E-3,-1.6640905E-2,-4.3875724E-2,3.8274296E-3,2.667473E-2],"categories":[],"categories_nodes":[],"categories_segments":[],"categories_sizes":[],"default_left":[0,0,0,0,0,0,0,0,0,0,0,0,0,0,0,0,0,0,0],"id":25,"left_children":[1,3,5,-1,7,9,11,13,-1,-1,-1,15,17,-1,-1,-1,-1,-1,-1],"loss_changes":[5.6132988E1,3.743828E1,2.160525E1,0E0,7.7536774E0,4.1177216E0,2.3753761E1,8.546324E0,0E0,0E0,0E0,3.5879135E0,4.203474E0,0E0,0E0,0E0,0E0,0E0,0E0],"parents":[2147483647,0,0,1,1,2,2,4,4,5,5,6,6,7,7,11,11,12,12],"right_children":[2,4,6,-1,8,10,12,14,-1,-1,-1,16,18,-1,-1,-1,-1,-1,-1],"split_conditions":[2.38E2,8.59E-1,1.291E0,2.3322154E-2,-2E-1,9.2963E1,4.54E2,1.39E2,-4.9982153E-2,1.5802583E-2,4.1118965E-2,9.3749E1,8.35E2,-4.4875037E-2,-6.0957004E-3,-1.6640905E-2,-4.3875724E-2,3.8274296E-3,2.667473E-2],"split_indices":[10,18,18,0,15,16,10,10,0,0,0,16,10,0,0,0,0,0,0],"split_type":[0,0,0,0,0,0,0,0,0,0,0,0,0,0,0,0,0,0,0],"sum_hessian":[3.8067026E2,1.7279E2,2.0788026E2,2.6250252E1,1.4653975E2,6.867256E1,1.392077E2,5.6558453E1,8.998129E1,3.0575327E1,3.8097233E1,5.133302E1,8.787469E1,2.7724669E1,2.8833786E1,2.6220724E1,2.5112295E1,5.7570354E1,3.0304335E1],"tree_param":{"num_deleted":"0","num_feature":"20","num_nodes":"19","size_leaf_vector":"1"}},{"base_weights":[-1.934754E-1,-5.845609E-1,1.6244212E-1,1.4311862E-1,-9.024036E-1,4.7338146E-1,-1.24284714E-1,2.0068998E-2,-7.666147E-3,-6.894948E-1,-5.1286317E-2,3.8565693E-3,5.963516E-1,-3.8631845E-2,1.8095022E-1,-4.646812E-2,-2.3117846E-2,1.8921029E-2,4.0084075E-2,-7.928647E-3,1.9866273E-2],"categories":[],"categories_nodes":[],"categories_segments":[],"categories_sizes":[],"default_left":[0,0,0,0,0,0,0,0,0,0,0,0,0,0,0,0,0,0,0,0,0],"id":26,"left_children":[1,3,5,7,9,11,13,-1,-1,15,-1,-1,17,-1,19,-1,-1,-1,-1,-1,-1],"loss_changes":[5.2395557E1,4.1585606E1,1.7666557E1,4.2993603E0,2.5718994E0,4.580904E0,2.0630493E1,0E0,0E0,2.232193E0,0E0,0E0,2.932705E0,0E0,5.2942934E0,0E0,0E0,0E0,0E0,0E0,0E0],"parents":[2147483647,0,0,1,1,2,2,3,3,4,4,5,5,6,6,9,9,12,12,14,14],"right_children":[2,4,6,8,10,12,14,-1,-1,16,-1,-1,18,-1,20,-1,-1,-1,-1,-1,-1],"split_conditions":[2.52E2,5.0991E3,-2E-1,8.59E-1,1.1E0,1E0,4.54E2,2.0068998E-2,-7.666147E-3,1.4E0,-5.1286317E-2,3.8565693E-3,9.2963E1,-3.8631845E-2,4.864E0,-4.646812E-2,-2.3117846E-2,1.8921029E-2,4.0084075E-2,-7.928647E-3,1.9866273E-2],"split_indices":[10,19,15,18,15,14,10,0,0,18,0,0,16,0,18,0,0,0,0,0,0],"split_type":[0,0,0,0,0,0,0,0,0,0,0,0,0,0,0,0,0,0,0,0,0],"sum_hessian":[3.7473843E2,1.7824203E2,1.9649641E2,5.4353367E1,1.23888664E2,9.3955696E1,1.0254072E2,2.8858076E1,2.549529E1,4.785722E1,7.603145E1,2.2637503E1,7.131819E1,3.233224E1,7.020848E1,2.1772682E1,2.6084536E1,3.597664E1,3.5341553E1,2.7431591E1,4.2776886E1],"tree_param":{"num_deleted":"0","num_feature":"20","num_nodes":"21","size_leaf_vector":"1"}},{"base_weights":[-1.8699215E-1,5.0892707E-2,-2.9739904E-1,-5.922852E-1,2.5176623E-1,-2.2262192E-1,-9.476817E-1,2.7682468E-2,1.1398324E-1,-4.5119636E-2,-2.2367486E-3,-5.001366E-2,-3.9329827E-2,-9.853813E-3,1.4586237E-2],"categories":[],"categories_nodes":[],"categories_segments":[],"categories_sizes":[],"default_left":[0,0,0,0,0,0,0,0,0,0,0,0,0,0,0],"id":27,"left_children":[1,-1,3,5,7,9,11,-1,13,-1,-1,-1,-1,-1,-1],"loss_changes":[4.9586403E1,0E0,5.523552E1,2.8904594E1,4.9092636E0,1.325334E1,1.6780853E-1,0E0,4.665247E0,0E0,0E0,0E0,0E0,0E0,0E0],"parents":[2147483647,0,0,2,2,3,3,4,4,5,5,6,6,8,8],"right_children":[2,-1,4,6,8,10,12,-1,14,-1,-1,-1,-1,-1,-1],"split_conditions":[1.3E1,5.0892707E-2,4.03E2,-2E-1,1.372E0,1.07E2,2.3E2,2.7682468E-2,6.29E2,-4.5119636E-2,-2.2367486E-3,-5.001366E-2,-3.9329827E-2,-9.853813E-3,1.4586237E-2],"split_indices":[12,0,10,15,18,10,10,0,10,0,0,0,0,0,0],"split_type":[0,0,0,0,0,0,0,0,0,0,0,0,0,0,0],"sum_hessian":[3.6948907E2,3.0326248E1,3.3916284E2,2.2061845E2,1.18544365E2,1.0893591E2,1.1168255E2,3.6203682E1,8.234069E1,2.174967E1,8.718624E1,8.026714E1,3.1415403E1,2.9901783E1,5.2438904E1],"tree_param":{"num_deleted":"0","num_feature":"20","num_nodes":"15","size_leaf_vector":"1"}},{"base_weights":[-1.8076226E-1,-5.8201075E-1,1.32173E-1,1.3519065E-2,-8.194931E-1,5.338839E-1,-7.17814E-2,-4.9660546E-1,-4.879981E-2,6.8159467E-1,8.180295E-3,-5.74275E-1,2.0405117E-1,-4.045482E-2,-8.571082E-3,2.3151074E-2,4.182784E-2,-1.5272925E-2,-4.248173E-2,2.6914105E-3,2.4033949E-2],"categories":[],"categories_nodes":[],"categories_segments":[],"categories_sizes":[],"default_left":[0,0,0,0,0,0,0,0,0,0,0,0,0,0,0,0,0,0,0,0,0],"id":28,"left_children":[1,3,5,-1,7,9,11,13,-1,15,-1,17,19,-1,-1,-1,-1,-1,-1,-1,-1],"loss_changes":[4.5923866E1,3.2645065E1,1.6912186E1,0E0,5.858185E0,3.6881886E0,1.9172592E1,4.2321873E0,0E0,1.2840137E0,0E0,3.3663464E0,3.6932316E0,0E0,0E0,0E0,0E0,0E0,0E0,0E0,0E0],"parents":[2147483647,0,0,1,1,2,2,4,4,5,5,6,6,7,7,9,9,11,11,12,12],"right_children":[2,4,6,-1,8,10,12,14,-1,16,-1,18,20,-1,-1,-1,-1,-1,-1,-1,-1],"split_conditions":[2.38E2,8.85E-1,1.291E0,1.3519065E-2,-1.1E0,-3.46E1,4.54E2,1.39E2,-4.879981E-2,2E0,8.180295E-3,9.3749E1,8.35E2,-4.045482E-2,-8.571082E-3,2.3151074E-2,4.182784E-2,-1.5272925E-2,-4.248173E-2,2.6914105E-3,2.4033949E-2],"split_indices":[10,18,18,0,15,17,10,10,0,9,0,16,10,0,0,0,0,0,0,0,0],"split_type":[0,0,0,0,0,0,0,0,0,0,0,0,0,0,0,0,0,0,0,0,0],"sum_hessian":[3.6412573E2,1.5917291E2,2.0495284E2,3.4653408E1,1.2451951E2,6.847198E1,1.3648085E2,4.2013306E1,8.25062E1,4.834536E1,2.0126621E1,4.798428E1,8.849657E1,2.0665916E1,2.134739E1,2.1710619E1,2.6634739E1,2.5347954E1,2.2636328E1,5.812586E1,3.037071E1],"tree_param":{"num_deleted":"0","num_feature":"20","num_nodes":"21","size_leaf_vector":"1"}},{"base_weights":[-1.7464003E-1,4.784296E-2,-2.8126305E-1,-5.949248E-1,1.8650126E-1,-2.3844503E-1,-4.779932E-2,2.6827613E-2,7.492563E-2,-4.4230282E-2,-3.0859131E-3,-1.2770267E-2,1.4820225E-2],"categories":[],"categories_nodes":[],"categories_segments":[],"categories_sizes":[],"default_left":[0,0,0,0,0,0,0,0,0,0,0,0,0],"id":29,"left_children":[1,-1,3,5,7,9,-1,-1,11,-1,-1,-1,-1],"loss_changes":[4.369838E1,0E0,4.8492023E1,2.5209122E1,5.1591835E0,1.1453611E1,0E0,0E0,7.546128E0,0E0,0E0,0E0,0E0],"parents":[2147483647,0,0,2,2,3,3,4,4,5,5,8,8],"right_children":[2,-1,4,6,8,10,-1,-1,12,-1,-1,-1,-1],"split_conditions":[1.3E1,4.784296E-2,3.62E2,-2E-1,1.299E0,1.07E2,-4.779932E-2,2.6827613E-2,6.16E2,-4.4230282E-2,-3.0859131E-3,-1.2770267E-2,1.4820225E-2],"split_indices":[12,0,10,15,18,10,0,0,10,0,0,0,0],"split_type":[0,0,0,0,0,0,0,0,0,0,0,0,0],"sum_hessian":[3.589789E2,3.022737E1,3.2875153E2,1.9662906E2,1.3212247E2,9.977781E1,9.685126E1,3.1013529E1,1.0110894E2,2.0568464E1,7.920934E1,4.052042E1,6.058852E1],"tree_param":{"num_deleted":"0","num_feature":"20","num_nodes":"13","size_leaf_vector":"1"}},{"base_weights":[-1.6870579E-1,-7.696228E-1,2.1830672E-2,-1.8750628E-2,-5.0713163E-2,4.753367E-2,-8.306208E-2,-3.4991997E-1,2.5366646E-1,-2.1227254E-4,-4.203715E-2,2.393186E-2,4.8022363E-3],"categories":[],"categories_nodes":[],"categories_segments":[],"categories_sizes":[],"default_left":[0,0,0,0,0,0,0,0,0,0,0,0,0],"id":30,"left_children":[1,3,5,-1,-1,-1,7,9,11,-1,-1,-1,-1],"loss_changes":[4.0642895E1,7.8686485E0,2.642128E1,0E0,0E0,0E0,2.200167E1,2.3149696E1,3.797749E0,0E0,0E0,0E0,0E0],"parents":[2147483647,0,0,1,1,2,2,6,6,7,7,8,8],"right_children":[2,4,6,-1,-1,-1,8,10,12,-1,-1,-1,-1],"split_conditions":[1.48E2,-1.7E0,1.3E1,-1.8750628E-2,-5.0713163E-2,4.753367E-2,4.54E2,4.076E0,2E0,-2.1227254E-4,-4.203715E-2,2.393186E-2,4.8022363E-3],"split_indices":[10,15,12,0,0,0,10,18,11,0,0,0,0],"split_type":[0,0,0,0,0,0,0,0,0,0,0,0,0],"sum_hessian":[3.5382355E2,8.4448685E1,2.6937488E2,3.3287754E1,5.116093E1,2.6515192E1,2.4285968E2,1.354646E2,1.0739509E2,8.0076996E1,5.5387604E1,4.3405933E1,6.3989155E1],"tree_param":{"num_deleted":"0","num_feature":"20","num_nodes":"13","size_leaf_vector":"1"}},{"base_weights":[-1.6277286E-1,-7.5719476E-1,2.0841347E-2,-1.8098552E-2,-5.0497778E-2,4.546092E-2,-7.970868E-2,-3.381598E-1,2.4038005E-1,-2.0181014E-4,-4.152362E-2,2.0609336E-2,2.0163434E-3],"categories":[],"categories_nodes":[],"categories_segments":[],"categories_sizes":[],"default_left":[0,0,0,0,0,0,0,0,0,0,0,0,0],"id":31,"left_children":[1,3,5,-1,-1,-1,7,9,11,-1,-1,-1,-1],"loss_changes":[3.824296E1,7.8942566E0,2.4062038E1,0E0,0E0,0E0,2.0115704E1,2.2105068E1,3.7218876E0,0E0,0E0,0E0,0E0],"parents":[2147483647,0,0,1,1,2,2,6,6,7,7,8,8],"right_children":[2,4,6,-1,-1,-1,8,10,12,-1,-1,-1,-1],"split_conditions":[1.48E2,-1.7E0,1.3E1,-1.8098552E-2,-5.0497778E-2,4.546092E-2,4.54E2,4.076E0,6E0,-2.0181014E-4,-4.152362E-2,2.0609336E-2,2.0163434E-3],"split_indices":[10,15,12,0,0,0,10,18,8,0,0,0,0],"split_type":[0,0,0,0,0,0,0,0,0,0,0,0,0],"sum_hessian":[3.4924442E2,8.168343E1,2.6756097E2,3.2811127E1,4.8872307E1,2.6386772E1,2.4117421E2,1.3340321E2,1.07770996E2,8.006962E1,5.3333595E1,5.740818E1,5.0362816E1],"tree_param":{"num_deleted":"0","num_feature":"20","num_nodes":"13","size_leaf_vector":"1"}},{"base_weights":[-1.5702784E-1,-7.4469113E-1,1.987735E-2,-1.7461749E-2,-5.0284803E-2,4.3503765E-2,-7.6503165E-2,-3.1416917E-1,2.4405614E-1,1.3090427E-4,-3.9305825E-2,2.3364287E-2,4.4523063E-3],"categories":[],"categories_nodes":[],"categories_segments":[],"categories_sizes":[],"default_left":[0,0,0,0,0,0,0,0,0,0,0,0,0],"id":32,"left_children":[1,3,5,-1,-1,-1,7,9,11,-1,-1,-1,-1],"loss_changes":[3.5966E1,7.9102325E0,2.1926771E1,0E0,0E0,0E0,1.840179E1,2.0717957E1,3.5214286E0,0E0,0E0,0E0,0E0],"parents":[2147483647,0,0,1,1,2,2,6,6,7,7,8,8],"right_children":[2,4,6,-1,-1,-1,8,10,12,-1,-1,-1,-1],"split_conditions":[1.48E2,-1.7E0,1.3E1,-1.7461749E-2,-5.0284803E-2,4.3503765E-2,4.75E2,4.076E0,2E0,1.3090427E-4,-3.9305825E-2,2.3364287E-2,4.4523063E-3],"split_indices":[10,15,12,0,0,0,10,18,11,0,0,0,0],"split_type":[0,0,0,0,0,0,0,0,0,0,0,0,0],"sum_hessian":[3.4481537E2,7.904046E1,2.657749E2,3.2355595E1,4.6684864E1,2.6243813E1,2.395311E2,1.375615E2,1.019696E2,8.290635E1,5.4655148E1,4.096354E1,6.1006058E1],"tree_param":{"num_deleted":"0","num_feature":"20","num_nodes":"13","size_leaf_vector":"1"}},{"base_weights":[-1.5141532E-1,-7.321121E-1,1.8988457E-2,-1.6840303E-2,-5.0073743E-2,4.1650902E-2,-7.33746E-2,-3.1603438E-1,2.1730188E-1,-1.9831455E-4,-4.0501084E-2,1.9005533E-2,1.3643347E-3],"categories":[],"categories_nodes":[],"categories_segments":[],"categories_sizes":[],"default_left":[0,0,0,0,0,0,0,0,0,0,0,0,0],"id":33,"left_children":[1,3,5,-1,-1,-1,7,9,11,-1,-1,-1,-1],"loss_changes":[3.3811913E1,7.916546E0,1.9988607E1,0E0,0E0,0E0,1.6923298E1,2.0135975E1,3.371326E0,0E0,0E0,0E0,0E0],"parents":[2147483647,0,0,1,1,2,2,6,6,7,7,8,8],"right_children":[2,4,6,-1,-1,-1,8,10,12,-1,-1,-1,-1],"split_conditions":[1.48E2,-1.7E0,1.3E1,-1.6840303E-2,-5.0073743E-2,4.1650902E-2,4.54E2,4.076E0,6E0,-1.9831455E-4,-4.0501084E-2,1.9005533E-2,1.3643347E-3],"split_indices":[10,15,12,0,0,0,10,18,8,0,0,0,0],"split_type":[0,0,0,0,0,0,0,0,0,0,0,0,0],"sum_hessian":[3.405565E2,7.651492E1,2.6404156E2,3.1920313E1,4.4594604E1,2.6089167E1,2.379524E2,1.2964017E2,1.0831222E2,8.006715E1,4.9573025E1,5.7793324E1,5.0518894E1],"tree_param":{"num_deleted":"0","num_feature":"20","num_nodes":"13","size_leaf_vector":"1"}},{"base_weights":[-1.459895E-1,-7.555482E-1,8.844377E-3,-2.0447982E-2,-4.9584657E-2,2.5867313E-1,-2.8442812E-1,3.8497876E-2,1.422706E-1,-8.2724327E-1,8.653818E-2,1.8745763E-2,-4.074283E-3,-3.477821E-2,-4.769628E-2,-1.0037162E-2,1.3469666E-2],"categories":[],"categories_nodes":[],"categories_segments":[],"categories_sizes":[],"default_left":[0,0,0,0,0,0,0,0,0,0,0,0,0,0,0,0,0],"id":34,"left_children":[1,3,5,-1,-1,7,9,-1,11,13,15,-1,-1,-1,-1,-1,-1],"loss_changes":[3.185664E1,5.189987E0,1.9862963E1,0E0,0E0,8.601914E0,2.5186308E1,0E0,6.3010006E0,1.8268967E-1,3.9935763E0,0E0,0E0,0E0,0E0,0E0,0E0],"parents":[2147483647,0,0,1,1,2,2,5,5,6,6,8,8,9,9,10,10],"right_children":[2,4,6,-1,-1,8,10,-1,12,14,16,-1,-1,-1,-1,-1,-1],"split_conditions":[1.39E2,-1.7E0,-2E-1,-2.0447982E-2,-4.9584657E-2,1.3E1,4.22E2,3.8497876E-2,6E0,9.3994E1,4.864E0,1.8745763E-2,-4.074283E-3,-3.477821E-2,-4.769628E-2,-1.0037162E-2,1.3469666E-2],"split_indices":[10,15,15,0,0,12,10,0,8,16,18,0,0,0,0,0,0],"split_type":[0,0,0,0,0,0,0,0,0,0,0,0,0,0,0,0,0],"sum_hessian":[3.3646387E2,6.73676E1,2.6909628E2,2.840685E1,3.896075E1,1.4537462E2,1.23721664E2,2.5918049E1,1.1945657E2,4.9727745E1,7.399392E1,5.8233883E1,6.1222687E1,2.7565544E1,2.2162203E1,2.8741182E1,4.5252735E1],"tree_param":{"num_deleted":"0","num_feature":"20","num_nodes":"17","size_leaf_vector":"1"}},{"base_weights":[-1.4084858E-1,-4.8429447E-1,1.2148292E-1,1.2616861E-1,-8.3281845E-1,3.4438163E-1,-9.766212E-2,1.8159539E-2,-7.632274E-3,-3.0287195E-2,-4.975703E-2,-1.3455082E-4,4.5383283E-1,-2.8503144E-2,1.3092098E-1,3.268774E-2,1.355788E-2,-8.295166E-3,1.565852E-2],"categories":[],"categories_nodes":[],"categories_segments":[],"categories_sizes":[],"default_left":[0,0,0,0,0,0,0,0,0,0,0,0,0,0,0,0,0,0,0],"id":35,"left_children":[1,3,5,7,9,11,13,-1,-1,-1,-1,-1,15,-1,17,-1,-1,-1,-1],"loss_changes":[3.0114805E1,3.0884026E1,9.311289E0,3.5872748E0,2.796383E0,3.5865116E0,1.0500558E1,0E0,0E0,0E0,0E0,0E0,2.4434204E0,0E0,3.61583E0,0E0,0E0,0E0,0E0],"parents":[2147483647,0,0,1,1,2,2,3,3,4,4,5,5,6,6,12,12,14,14],"right_children":[2,4,6,8,10,12,14,-1,-1,-1,-1,-1,16,-1,18,-1,-1,-1,-1],"split_conditions":[2.52E2,5.0991E3,-2E-1,8.59E-1,1.1E0,1E0,4.98E2,1.8159539E-2,-7.632274E-3,-3.0287195E-2,-4.975703E-2,-1.3455082E-4,6E0,-2.8503144E-2,4.864E0,3.268774E-2,1.355788E-2,-8.295166E-3,1.565852E-2],"split_indices":[10,19,15,18,15,14,10,0,0,0,0,0,8,0,18,0,0,0,0],"split_type":[0,0,0,0,0,0,0,0,0,0,0,0,0,0,0,0,0,0,0],"sum_hessian":[3.3259686E2,1.4366444E2,1.8893242E2,5.244373E1,9.122072E1,9.338073E1,9.555169E1,2.8182732E1,2.4261E1,3.9998302E1,5.1222416E1,2.2621807E1,7.075893E1,3.067121E1,6.4880486E1,3.2553364E1,3.820556E1,2.471598E1,4.01645E1],"tree_param":{"num_deleted":"0","num_feature":"20","num_nodes":"19","size_leaf_vector":"1"}},{"base_weights":[-1.3574666E-1,-7.344766E-1,9.4444165E-3,-1.9411143E-2,-4.921065E-2,3.2794178E-1,-1.8928653E-1,3.722103E-2,1.8643571E-1,-6.0023004E-1,1.189052E-1,-5.717765E-4,2.2533169E-2,-9.632158E-3,-4.1042667E-2,-6.410387E-4,1.9330582E-2],"categories":[],"categories_nodes":[],"categories_segments":[],"categories_sizes":[],"default_left":[0,0,0,0,0,0,0,0,0,0,0,0,0,0,0,0,0],"id":36,"left_children":[1,3,5,-1,-1,7,9,-1,11,13,15,-1,-1,-1,-1,-1,-1],"loss_changes":[2.8678127E1,5.185272E0,1.6926155E1,0E0,0E0,5.915909E0,2.0930351E1,0E0,4.0840874E0,6.203787E0,3.3532705E0,0E0,0E0,0E0,0E0,0E0,0E0],"parents":[2147483647,0,0,1,1,2,2,5,5,6,6,8,8,9,9,10,10],"right_children":[2,4,6,-1,-1,8,10,-1,12,14,16,-1,-1,-1,-1,-1,-1],"split_conditions":[1.39E2,-1.7E0,1.291E0,-1.9411143E-2,-4.921065E-2,7.31E-1,4.15E2,3.722103E-2,1.03E0,4.076E0,8.35E2,-5.717765E-4,2.2533169E-2,-9.632158E-3,-4.1042667E-2,-6.410387E-4,1.9330582E-2],"split_indices":[10,15,18,0,0,18,10,0,18,18,10,0,0,0,0,0,0],"split_type":[0,0,0,0,0,0,0,0,0,0,0,0,0,0,0,0,0],"sum_hessian":[3.2881836E2,6.3383347E1,2.6543503E2,2.7629787E1,3.5753555E1,1.0173639E2,1.6369862E2,2.4720028E1,7.7016365E1,6.974839E1,9.395023E1,4.4584927E1,3.243144E1,2.5153023E1,4.4595367E1,6.3605167E1,3.0345062E1],"tree_param":{"num_deleted":"0","num_feature":"20","num_nodes":"17","size_leaf_vector":"1"}},{"base_weights":[-1.3080779E-1,-7.2205794E-1,8.994449E-3,-1.8755706E-2,-4.8994914E-2,2.2709836E-1,-2.578295E-1,3.58494E-2,1.17532596E-1,-7.9793286E-1,7.400262E-2,2.5023475E-2,-4.7544675E-4,-4.518437E-2,-3.3415314E-2,-9.424162E-3,1.194845E-2],"categories":[],"categories_nodes":[],"categories_segments":[],"categories_sizes":[],"default_left":[0,0,0,0,0,0,0,0,0,0,0,0,0,0,0,0,0],"id":37,"left_children":[1,3,5,-1,-1,7,9,-1,11,13,15,-1,-1,-1,-1,-1,-1],"loss_changes":[2.6960312E1,5.211937E0,1.5463823E1,0E0,0E0,7.7623806E0,2.1481426E1,0E0,5.8749447E0,2.0811081E-2,3.2906876E0,0E0,0E0,0E0,0E0,0E0,0E0],"parents":[2147483647,0,0,1,1,2,2,5,5,6,6,8,8,9,9,10,10],"right_children":[2,4,6,-1,-1,8,10,-1,12,14,16,-1,-1,-1,-1,-1,-1],"split_conditions":[1.39E2,-1.7E0,-2E-1,-1.8755706E-2,-4.8994914E-2,1.3E1,4.22E2,3.58494E-2,1E0,4.865E0,4.864E0,2.5023475E-2,-4.7544675E-4,-4.518437E-2,-3.3415314E-2,-9.424162E-3,1.194845E-2],"split_indices":[10,15,15,0,0,12,10,0,1,18,18,0,0,0,0,0,0],"split_type":[0,0,0,0,0,0,0,0,0,0,0,0,0,0,0,0,0],"sum_hessian":[3.2508804E2,6.13715E1,2.6371655E2,2.7211365E1,3.4160133E1,1.4518782E2,1.1852874E2,2.5523489E1,1.1966432E2,4.457387E1,7.3954865E1,2.9077524E1,9.05868E1,2.1258707E1,2.3315165E1,2.8486338E1,4.546853E1],"tree_param":{"num_deleted":"0","num_feature":"20","num_nodes":"17","size_leaf_vector":"1"}},{"base_weights":[-1.2605363E-1,-7.0955706E-1,8.405709E-3,-1.8114595E-2,-4.8778478E-2,2.994919E-1,-1.7695987E-1,3.485307E-2,1.6549657E-1,-5.765782E-1,1.08587E-1,-9.524938E-3,1.5450746E-2,-1.4686163E-2,-4.458785E-2,1.682849E-2,-2.0394835E-3],"categories":[],"categories_nodes":[],"categories_segments":[],"categories_sizes":[],"default_left":[0,0,0,0,0,0,0,0,0,0,0,0,0,0,0,0,0],"id":38,"left_children":[1,3,5,-1,-1,7,9,-1,11,13,15,-1,-1,-1,-1,-1,-1],"loss_changes":[2.5325813E1,5.2307816E0,1.4258359E1,0E0,0E0,5.3609304E0,1.8488178E1,0E0,4.0540533E0,5.751505E0,3.2496393E0,0E0,0E0,0E0,0E0,0E0,0E0],"parents":[2147483647,0,0,1,1,2,2,5,5,6,6,8,8,9,9,10,10],"right_children":[2,4,6,-1,-1,8,10,-1,12,14,16,-1,-1,-1,-1,-1,-1],"split_conditions":[1.39E2,-1.7E0,1.291E0,-1.8114595E-2,-4.8778478E-2,7.31E-1,4.15E2,3.485307E-2,2.26E2,6E0,2E0,-9.524938E-3,1.5450746E-2,-1.4686163E-2,-4.458785E-2,1.682849E-2,-2.0394835E-3],"split_indices":[10,15,18,0,0,18,10,0,10,8,11,0,0,0,0,0,0],"split_type":[0,0,0,0,0,0,0,0,0,0,0,0,0,0,0,0,0],"sum_hessian":[3.217206E2,5.945049E1,2.622701E2,2.6811472E1,3.263902E1,1.0179776E2,1.6047235E2,2.4601624E1,7.719614E1,6.6453094E1,9.401926E1,2.2085646E1,5.5110493E1,3.6040627E1,3.0412468E1,3.672119E1,5.729806E1],"tree_param":{"num_deleted":"0","num_feature":"20","num_nodes":"17","size_leaf_vector":"1"}},{"base_weights":[-1.2147363E-1,-6.969781E-1,7.897203E-3,-1.7487941E-2,-4.856093E-2,2.104215E-1,-2.4414086E-1,3.388733E-2,1.0707208E-1,-3.9017033E-2,6.518438E-2,1.610535E-2,-5.0413054E-3,-9.294501E-3,1.1107585E-2],"categories":[],"categories_nodes":[],"categories_segments":[],"categories_sizes":[],"default_left":[0,0,0,0,0,0,0,0,0,0,0,0,0,0,0],"id":39,"left_children":[1,3,5,-1,-1,7,9,-1,11,-1,13,-1,-1,-1,-1],"loss_changes":[2.3779278E1,5.241865E0,1.3409227E1,0E0,0E0,6.9613605E0,1.946598E1,0E0,5.4172125E0,0E0,3.0032334E0,0E0,0E0,0E0,0E0],"parents":[2147483647,0,0,1,1,2,2,5,5,6,6,8,8,10,10],"right_children":[2,4,6,-1,-1,8,10,-1,12,-1,14,-1,-1,-1,-1],"split_conditions":[1.39E2,-1.7E0,-2E-1,-1.7487941E-2,-4.856093E-2,1.3E1,4.22E2,3.388733E-2,6E0,-3.9017033E-2,4.864E0,1.610535E-2,-5.0413054E-3,-9.294501E-3,1.1107585E-2],"split_indices":[10,15,15,0,0,12,10,0,8,0,18,0,0,0,0],"split_type":[0,0,0,0,0,0,0,0,0,0,0,0,0,0,0],"sum_hessian":[3.1831036E2,5.7616528E1,2.6069382E2,2.6429356E1,3.1187172E1,1.4463667E2,1.1605716E2,2.5187244E1,1.19449425E2,4.1901062E1,7.41561E1,5.8446857E1,6.1002567E1,2.845582E1,4.5700275E1],"tree_param":{"num_deleted":"0","num_feature":"20","num_nodes":"15","size_leaf_vector":"1"}},{"base_weights":[-1.1697634E-1,-7.4055696E-1,-2.9943753E-3,-2.2699354E-2,-4.78328E-2,3.7399407E-2,-8.3271936E-2,-3.2552493E-1,1.6694722E-1,-4.0357793E-3,-3.983966E-2,2.2424078E-2,1.9982567E-3],"categories":[],"categories_nodes":[],"categories_segments":[],"categories_sizes":[],"default_left":[0,0,0,0,0,0,0,0,0,0,0,0,0],"id":40,"left_children":[1,3,5,-1,-1,-1,7,9,11,-1,-1,-1,-1],"loss_changes":[2.2463715E1,2.5903778E0,1.623348E1,0E0,0E0,0E0,1.4798178E1,1.4232701E1,4.2831273E0,0E0,0E0,0E0,0E0],"parents":[2147483647,0,0,1,1,2,2,6,6,7,7,8,8],"right_children":[2,4,6,-1,-1,-1,8,10,12,-1,-1,-1,-1],"split_conditions":[1.25E2,-1.7E0,7.24E-1,-2.2699354E-2,-4.78328E-2,3.7399407E-2,4.03E2,4.076E0,1.372E0,-4.0357793E-3,-3.983966E-2,2.2424078E-2,1.9982567E-3],"split_indices":[10,15,18,0,0,0,10,18,18,0,0,0,0],"split_type":[0,0,0,0,0,0,0,0,0,0,0,0,0],"sum_hessian":[3.1507904E2,4.784239E1,2.6723666E2,2.1900658E1,2.594173E1,2.5004686E1,2.4223198E2,1.2292223E2,1.19309746E2,8.166898E1,4.125325E1,3.6298912E1,8.301083E1],"tree_param":{"num_deleted":"0","num_feature":"20","num_nodes":"13","size_leaf_vector":"1"}},{"base_weights":[-1.1259284E-1,-7.2855055E-1,-2.9091355E-3,-2.2004573E-2,-4.7595654E-2,3.5649534E-2,-7.981544E-2,-3.140121E-1,1.5863182E-1,-3.8428453E-3,-3.933497E-2,2.1292746E-2,1.8982365E-3],"categories":[],"categories_nodes":[],"categories_segments":[],"categories_sizes":[],"default_left":[0,0,0,0,0,0,0,0,0,0,0,0,0],"id":41,"left_children":[1,3,5,-1,-1,-1,7,9,11,-1,-1,-1,-1],"loss_changes":[2.1143608E1,2.6290188E0,1.4739771E1,0E0,0E0,0E0,1.3547948E1,1.3647067E1,3.8672366E0,0E0,0E0,0E0,0E0],"parents":[2147483647,0,0,1,1,2,2,6,6,7,7,8,8],"right_children":[2,4,6,-1,-1,-1,8,10,12,-1,-1,-1,-1],"split_conditions":[1.25E2,-1.7E0,7.24E-1,-2.2004573E-2,-4.7595654E-2,3.5649534E-2,4.03E2,4.076E0,1.372E0,-3.8428453E-3,-3.933497E-2,2.1292746E-2,1.8982365E-3],"split_indices":[10,15,18,0,0,0,10,18,18,0,0,0,0],"split_type":[0,0,0,0,0,0,0,0,0,0,0,0,0],"sum_hessian":[3.1198944E2,4.630564E1,2.656838E2,2.1504368E1,2.4801275E1,2.4970387E1,2.4071341E2,1.2127922E2,1.1943419E2,8.153455E1,3.9744667E1,3.636748E1,8.306671E1],"tree_param":{"num_deleted":"0","num_feature":"20","num_nodes":"13","size_leaf_vector":"1"}},{"base_weights":[-1.0834984E-1,3.4578588E-2,-1.9014883E-1,-4.5509467E-1,1.1549147E-1,-1.9604002E-1,-4.428278E-2,1.7625643E-2,2.0349413E-2,3.0207366E-3,-2.2953516E-2,-8.6115105E-3,1.233036E-2],"categories":[],"categories_nodes":[],"categories_segments":[],"categories_sizes":[],"default_left":[0,0,0,0,0,0,0,0,0,0,0,0,0],"id":42,"left_children":[1,-1,3,5,7,9,-1,11,-1,-1,-1,-1,-1],"loss_changes":[2.0417328E1,0E0,2.2892284E1,1.6700459E1,3.7517262E0,6.485814E0,0E0,4.3763604E0,0E0,0E0,0E0,0E0,0E0],"parents":[2147483647,0,0,2,2,3,3,4,4,5,5,7,7],"right_children":[2,-1,4,6,8,10,-1,12,-1,-1,-1,-1,-1],"split_conditions":[1.3E1,3.4578588E-2,3.62E2,4.076E0,4.9E1,6E0,-4.428278E-2,6.73E2,2.0349413E-2,3.0207366E-3,-2.2953516E-2,-8.6115105E-3,1.233036E-2],"split_indices":[12,0,10,18,0,8,0,10,0,0,0,0,0],"split_type":[0,0,0,0,0,0,0,0,0,0,0,0,0],"sum_hessian":[3.0902545E2,2.797734E1,2.8104813E2,1.5028438E2,1.3076375E2,9.4738556E1,5.554582E1,9.869036E1,3.2073395E1,4.83589E1,4.6379654E1,5.409026E1,4.46001E1],"tree_param":{"num_deleted":"0","num_feature":"20","num_nodes":"13","size_leaf_vector":"1"}},{"base_weights":[-1.0416268E-1,-7.0900583E-1,-7.703248E-4,-2.1175122E-2,-4.7158595E-2,3.381856E-2,-7.3979385E-2,-4.804395E-1,4.7702327E-2,-9.896248E-3,-3.7511084E-2,8.125945E-3,-1.3176516E-2],"categories":[],"categories_nodes":[],"categories_segments":[],"categories_sizes":[],"default_left":[0,0,0,0,0,0,0,0,0,0,0,0,0],"id":43,"left_children":[1,3,5,-1,-1,-1,7,9,11,-1,-1,-1,-1],"loss_changes":[1.919717E1,2.5966473E0,1.3096204E1,0E0,0E0,0E0,1.1813693E1,4.044673E0,6.6315966E0,0E0,0E0,0E0,0E0],"parents":[2147483647,0,0,1,1,2,2,6,6,7,7,8,8],"right_children":[2,4,6,-1,-1,-1,8,10,12,-1,-1,-1,-1],"split_conditions":[1.25E2,-1.7E0,7.24E-1,-2.1175122E-2,-4.7158595E-2,3.381856E-2,2.26E2,-1.7E0,1E0,-9.896248E-3,-3.7511084E-2,8.125945E-3,-1.3176516E-2],"split_indices":[10,15,18,0,0,0,10,15,7,0,0,0,0],"split_type":[0,0,0,0,0,0,0,0,0,0,0,0,0],"sum_hessian":[3.0598587E2,4.38145E1,2.6217136E2,2.100862E1,2.280588E1,2.4775293E1,2.3739607E2,5.40158E1,1.8338028E2,2.7232111E1,2.6783688E1,1.3430994E2,4.9070347E1],"tree_param":{"num_deleted":"0","num_feature":"20","num_nodes":"13","size_leaf_vector":"1"}},{"base_weights":[-1.001321E-1,3.3009928E-2,-1.7849565E-1,-4.3425208E-1,1.0700922E-1,-1.8520907E-1,-4.367078E-2,1.4299349E-2,1.9079741E-2,3.0591355E-3,-2.2108136E-2,-8.404111E-3,1.1674879E-2],"categories":[],"categories_nodes":[],"categories_segments":[],"categories_sizes":[],"default_left":[0,0,0,0,0,0,0,0,0,0,0,0,0],"id":44,"left_children":[1,-1,3,5,7,9,-1,11,-1,-1,-1,-1,-1],"loss_changes":[1.8272154E1,0E0,2.0273775E1,1.5840904E1,3.3470924E0,6.0186644E0,0E0,4.0167484E0,0E0,0E0,0E0,0E0,0E0],"parents":[2147483647,0,0,2,2,3,3,4,4,5,5,7,7],"right_children":[2,-1,4,6,8,10,-1,12,-1,-1,-1,-1,-1],"split_conditions":[1.3E1,3.3009928E-2,3.62E2,4.076E0,4.9E1,6E0,-4.367078E-2,6.73E2,1.9079741E-2,3.0591355E-3,-2.2108136E-2,-8.404111E-3,1.1674879E-2],"split_indices":[12,0,10,18,0,8,0,10,0,0,0,0,0],"split_type":[0,0,0,0,0,0,0,0,0,0,0,0,0],"sum_hessian":[3.0369354E2,2.7681925E1,2.7601163E2,1.4531598E2,1.3069565E2,9.363737E1,5.1678608E1,9.849298E1,3.220266E1,4.8190033E1,4.544733E1,5.388868E1,4.4604305E1],"tree_param":{"num_deleted":"0","num_feature":"20","num_nodes":"13","size_leaf_vector":"1"}},{"base_weights":[-9.6221246E-2,-6.893252E-1,1.0482857E-3,-2.0371968E-2,-4.670966E-2,3.210425E-2,-6.849715E-2,-4.5828506E-1,4.4845894E-2,-9.365137E-3,-3.6446635E-2,7.671635E-3,-1.2619852E-2],"categories":[],"categories_nodes":[],"categories_segments":[],"categories_sizes":[],"default_left":[0,0,0,0,0,0,0,0,0,0,0,0,0],"id":45,"left_children":[1,3,5,-1,-1,-1,7,9,11,-1,-1,-1,-1],"loss_changes":[1.7415182E1,2.5551014E0,1.16496315E1,0E0,0E0,0E0,1.0435992E1,3.7650595E0,5.9632134E0,0E0,0E0,0E0,0E0],"parents":[2147483647,0,0,1,1,2,2,6,6,7,7,8,8],"right_children":[2,4,6,-1,-1,-1,8,10,12,-1,-1,-1,-1],"split_conditions":[1.25E2,-1.7E0,7.24E-1,-2.0371968E-2,-4.670966E-2,3.210425E-2,2.26E2,-1.7E0,1E0,-9.365137E-3,-3.6446635E-2,7.671635E-3,-1.2619852E-2],"split_indices":[10,15,18,0,0,0,10,15,7,0,0,0,0],"split_type":[0,0,0,0,0,0,0,0,0,0,0,0,0],"sum_hessian":[3.0085773E2,4.1531483E1,2.5932623E2,2.0544771E1,2.0986712E1,2.4574804E1,2.3475145E2,5.2198143E1,1.825533E2,2.6928446E1,2.5269697E1,1.3406235E2,4.849095E1],"tree_param":{"num_deleted":"0","num_feature":"20","num_nodes":"13","size_leaf_vector":"1"}},{"base_weights":[-9.247821E-2,3.1533338E-2,-1.6751772E-1,-4.1395077E-1,9.91459E-2,-1.7494002E-1,-4.3039903E-2,1.1296524E-2,1.7898977E-2,3.0859702E-3,-2.1286452E-2,-8.1959115E-3,1.1059114E-2],"categories":[],"categories_nodes":[],"categories_segments":[],"categories_sizes":[],"default_left":[0,0,0,0,0,0,0,0,0,0,0,0,0],"id":46,"left_children":[1,-1,3,5,7,9,-1,11,-1,-1,-1,-1,-1],"loss_changes":[1.637057E1,0E0,1.7938166E1,1.4986914E1,2.9885654E0,5.5814505E0,0E0,3.6877651E0,0E0,0E0,0E0,0E0,0E0],"parents":[2147483647,0,0,2,2,3,3,4,4,5,5,7,7],"right_children":[2,-1,4,6,8,10,-1,12,-1,-1,-1,-1,-1],"split_conditions":[1.3E1,3.1533338E-2,3.62E2,4.076E0,4.9E1,6E0,-4.3039903E-2,6.73E2,1.7898977E-2,3.0859702E-3,-2.1286452E-2,-8.1959115E-3,1.1059114E-2],"split_indices":[12,0,10,18,0,8,0,10,0,0,0,0,0],"split_type":[0,0,0,0,0,0,0,0,0,0,0,0,0],"sum_hessian":[2.9873444E2,2.7388733E1,2.713457E2,1.4073515E2,1.3061053E2,9.259775E1,4.8137405E1,9.829305E1,3.231749E1,4.8028812E1,4.456894E1,5.36906E1,4.4602448E1],"tree_param":{"num_deleted":"0","num_feature":"20","num_nodes":"13","size_leaf_vector":"1"}},{"base_weights":[-8.883033E-2,-3.3477258E-2,2.6597008E-3,3.0494764E-2,-6.339598E-2,-4.3669927E-1,4.2209044E-2,-8.864876E-3,-3.5365682E-2,7.247696E-3,-1.2081741E-2],"categories":[],"categories_nodes":[],"categories_segments":[],"categories_sizes":[],"default_left":[0,0,0,0,0,0,0,0,0,0,0],"id":47,"left_children":[1,-1,3,-1,5,7,9,-1,-1,-1,-1],"loss_changes":[1.5785987E1,0E0,1.03733425E1,0E0,9.214875E0,3.4917984E0,5.3646317E0,0E0,0E0,0E0,0E0],"parents":[2147483647,0,0,2,2,4,4,5,5,6,6],"right_children":[2,-1,4,-1,6,8,10,-1,-1,-1,-1],"split_conditions":[1.25E2,-3.3477258E-2,7.24E-1,3.0494764E-2,2.26E2,-1.7E0,1E0,-8.864876E-3,-3.5365682E-2,7.247696E-3,-1.2081741E-2],"split_indices":[10,0,18,0,10,15,7,0,0,0,0],"split_type":[0,0,0,0,0,0,0,0,0,0,0],"sum_hessian":[2.9608868E2,3.943903E1,2.5664966E2,2.4371809E1,2.3227783E2,5.0528694E1,1.8174915E2,2.6643915E1,2.388478E1,1.3380438E2,4.794475E1],"tree_param":{"num_deleted":"0","num_feature":"20","num_nodes":"11","size_leaf_vector":"1"}},{"base_weights":[-8.5237846E-2,-3.2800533E-2,2.4096756E-3,2.8495157E-2,-6.212774E-2,-2.4765456E-1,1.4584862E-1,-4.041165E-3,-4.293312E-2,1.9703059E-2,2.2874537E-3],"categories":[],"categories_nodes":[],"categories_segments":[],"categories_sizes":[],"default_left":[0,0,0,0,0,0,0,0,0,0,0],"id":48,"left_children":[1,-1,3,-1,5,7,9,-1,-1,-1,-1],"loss_changes":[1.4765774E1,0E0,9.441892E0,0E0,8.96903E0,1.244113E1,2.7095895E0,0E0,0E0,0E0,0E0],"parents":[2147483647,0,0,2,2,4,4,5,5,6,6],"right_children":[2,-1,4,-1,6,8,10,-1,-1,-1,-1],"split_conditions":[1.25E2,-3.2800533E-2,7.31E-1,2.8495157E-2,4.54E2,1E0,1.372E0,-4.041165E-3,-4.293312E-2,1.9703059E-2,2.2874537E-3],"split_indices":[10,0,18,0,10,7,18,0,0,0,0],"split_type":[0,0,0,0,0,0,0,0,0,0,0],"sum_hessian":[2.9412555E2,3.8290154E1,2.558354E2,2.5324062E1,2.3051134E2,1.21730225E2,1.0878111E2,9.65109E1,2.5219322E1,3.0418062E1,7.836305E1],"tree_param":{"num_deleted":"0","num_feature":"20","num_nodes":"11","size_leaf_vector":"1"}},{"base_weights":[-8.177342E-2,3.0173171E-2,-1.5339385E-1,-7.0301366E-1,-4.8972066E-2,-2.1919703E-2,-4.6562936E-2,-1.652215E-1,1.9289614E-1,5.6095286E-3,-1.91637E-2,2.37414E-2,3.621049E-3],"categories":[],"categories_nodes":[],"categories_segments":[],"categories_sizes":[],"default_left":[0,0,0,0,0,0,0,0,0,0,0,0,0],"id":49,"left_children":[1,-1,3,5,7,-1,-1,9,11,-1,-1,-1,-1],"loss_changes":[1.4474078E1,0E0,1.5238079E1,2.1532726E0,6.3496723E0,0E0,0E0,9.25544E0,2.4587235E0,0E0,0E0,0E0,0E0],"parents":[2147483647,0,0,2,2,3,3,4,4,7,7,8,8],"right_children":[2,-1,4,6,8,-1,-1,10,12,-1,-1,-1,-1],"split_conditions":[1.3E1,3.0173171E-2,1.39E2,-1.7E0,6.16E2,-2.1919703E-2,-4.6562936E-2,1.291E0,3E0,5.6095286E-3,-1.91637E-2,2.37414E-2,3.621049E-3],"split_indices":[12,0,10,15,10,0,0,18,3,0,0,0,0],"split_type":[0,0,0,0,0,0,0,0,0,0,0,0,0],"sum_hessian":[2.9204E2,2.6932669E1,2.6510733E2,4.14108E1,2.2369653E2,2.0529873E1,2.088093E1,1.512959E2,7.240064E1,6.679854E1,8.449735E1,2.079518E1,5.1605465E1],"tree_param":{"num_deleted":"0","num_feature":"20","num_nodes":"13","size_leaf_vector":"1"}},{"base_weights":[-7.858622E-2,2.8850352E-2,-1.4743654E-1,-4.1593384E-2,-6.652387E-2,-2.1653052E-1,1.2851013E-1,-1.3159061E-3,-4.4991087E-2,1.6516661E-2,-5.5011595E-4],"categories":[],"categories_nodes":[],"categories_segments":[],"categories_sizes":[],"default_left":[0,0,0,0,0,0,0,0,0,0,0],"id":50,"left_children":[1,-1,3,-1,5,7,9,-1,-1,-1,-1],"loss_changes":[1.319568E1,0E0,1.4545324E1,0E0,6.9575796E0,1.7426025E1,2.9207907E0,0E0,0E0,0E0,0E0],"parents":[2147483647,0,0,2,2,4,4,5,5,6,6],"right_children":[2,-1,4,-1,6,8,10,-1,-1,-1,-1],"split_conditions":[1.3E1,2.8850352E-2,1.07E2,-4.1593384E-2,4.75E2,1E0,2E0,-1.3159061E-3,-4.4991087E-2,1.6516661E-2,-5.5011595E-4],"split_indices":[12,0,10,0,10,7,11,0,0,0,0],"split_type":[0,0,0,0,0,0,0,0,0,0,0],"sum_hessian":[2.8945734E2,2.6808266E1,2.6264908E2,2.6786242E1,2.3586284E2,1.3325902E2,1.0260382E2,1.0505318E2,2.8205845E1,4.1377728E1,6.1226093E1],"tree_param":{"num_deleted":"0","num_feature":"20","num_nodes":"11","size_leaf_vector":"1"}},{"base_weights":[-7.547445E-2,-3.213919E-2,-7.6346594E-4,2.7221246E-2,-5.956323E-2,-4.0339476E-1,3.954895E-2,-6.983003E-3,-3.4877412E-2,6.4739413E-3,-1.0759645E-2],"categories":[],"categories_nodes":[],"categories_segments":[],"categories_sizes":[],"default_left":[0,0,0,0,0,0,0,0,0,0,0],"id":51,"left_children":[1,-1,3,-1,5,7,9,-1,-1,-1,-1],"loss_changes":[1.2224714E1,0E0,8.234957E0,0E0,7.917428E0,3.9344063E0,4.1719503E0,0E0,0E0,0E0,0E0],"parents":[2147483647,0,0,2,2,4,4,5,5,6,6],"right_children":[2,-1,4,-1,6,8,10,-1,-1,-1,-1],"split_conditions":[1.19E2,-3.213919E-2,7.24E-1,2.7221246E-2,2.26E2,-1.7E0,1E0,-6.983003E-3,-3.4877412E-2,6.4739413E-3,-1.0759645E-2],"split_indices":[10,0,18,0,10,15,7,0,0,0,0],"split_type":[0,0,0,0,0,0,0,0,0,0,0],"sum_hessian":[2.8743756E2,3.2563877E1,2.5487367E2,2.4008562E1,2.3086511E2,5.097095E1,1.7989417E2,2.7652664E1,2.3318285E1,1.3332057E2,4.6573586E1],"tree_param":{"num_deleted":"0","num_feature":"20","num_nodes":"11","size_leaf_vector":"1"}},{"base_weights":[-7.239614E-2,2.7670113E-2,-1.3829295E-1,-4.070703E-2,-6.285912E-2,-2.0577691E-1,1.20345674E-1,-1.2515183E-3,-4.419805E-2,1.5528465E-2,-5.79559E-4],"categories":[],"categories_nodes":[],"categories_segments":[],"categories_sizes":[],"default_left":[0,0,0,0,0,0,0,0,0,0,0],"id":52,"left_children":[1,-1,3,-1,5,7,9,-1,-1,-1,-1],"loss_changes":[1.1901387E1,0E0,1.3215707E1,0E0,6.1826115E0,1.621805E1,2.60611E0,0E0,0E0,0E0,0E0],"parents":[2147483647,0,0,2,2,4,4,5,5,6,6],"right_children":[2,-1,4,-1,6,8,10,-1,-1,-1,-1],"split_conditions":[1.3E1,2.7670113E-2,1.07E2,-4.070703E-2,4.75E2,1E0,2E0,-1.2515183E-3,-4.419805E-2,1.5528465E-2,-5.79559E-4],"split_indices":[12,0,10,0,10,7,11,0,0,0,0],"split_type":[0,0,0,0,0,0,0,0,0,0,0],"sum_hessian":[2.8574573E2,2.6517792E1,2.5922794E2,2.5045012E1,2.3418292E2,1.3148694E2,1.02695984E2,1.0463658E2,2.6850359E1,4.1503395E1,6.119259E1],"tree_param":{"num_deleted":"0","num_feature":"20","num_nodes":"11","size_leaf_vector":"1"}},{"base_weights":[-6.951835E-2,2.6456429E-2,-1.3270496E-1,-4.0200517E-2,-6.0152214E-2,-2.3401496E-1,7.940571E-2,-9.0842554E-4,-3.9196264E-2,-1.12007954E-4,1.5955199E-2],"categories":[],"categories_nodes":[],"categories_segments":[],"categories_sizes":[],"default_left":[0,0,0,0,0,0,0,0,0,0,0],"id":53,"left_children":[1,-1,3,-1,5,7,9,-1,-1,-1,-1],"loss_changes":[1.0845436E1,0E0,1.2540069E1,0E0,5.7044473E0,1.240092E1,2.5593061E0,0E0,0E0,0E0,0E0],"parents":[2147483647,0,0,2,2,4,4,5,5,6,6],"right_children":[2,-1,4,-1,6,8,10,-1,-1,-1,-1],"split_conditions":[1.3E1,2.6456429E-2,1.07E2,-4.0200517E-2,3.62E2,4.076E0,4.9E1,-9.0842554E-4,-3.9196264E-2,-1.12007954E-4,1.5955199E-2],"split_indices":[12,0,10,0,10,18,0,0,0,0,0],"split_type":[0,0,0,0,0,0,0,0,0,0,0],"sum_hessian":[2.838592E2,2.6396605E1,2.574626E2,2.4128471E1,2.333341E2,1.0359612E2,1.2973798E2,7.513699E1,2.8459135E1,9.751361E1,3.222437E1],"tree_param":{"num_deleted":"0","num_feature":"20","num_nodes":"11","size_leaf_vector":"1"}},{"base_weights":[-6.67709E-2,-3.0157438E-2,-1.2113453E-3,2.5554372E-2,-5.642411E-2,-3.8316315E-1,3.5224646E-2,-6.737052E-3,-3.377414E-2,5.7945508E-3,-9.857652E-3],"categories":[],"categories_nodes":[],"categories_segments":[],"categories_sizes":[],"default_left":[0,0,0,0,0,0,0,0,0,0,0],"id":54,"left_children":[1,-1,3,-1,5,7,9,-1,-1,-1,-1],"loss_changes":[9.946796E0,0E0,7.1871977E0,0E0,6.881581E0,3.5635104E0,3.397522E0,0E0,0E0,0E0,0E0],"parents":[2147483647,0,0,2,2,4,4,5,5,6,6],"right_children":[2,-1,4,-1,6,8,10,-1,-1,-1,-1],"split_conditions":[1.19E2,-3.0157438E-2,7.24E-1,2.5554372E-2,2.26E2,-1.7E0,1E0,-6.737052E-3,-3.377414E-2,5.7945508E-3,-9.857652E-3],"split_indices":[10,0,18,0,10,15,7,0,0,0,0],"split_type":[0,0,0,0,0,0,0,0,0,0,0],"sum_hessian":[2.8188394E2,2.9808079E1,2.5207587E2,2.3720982E1,2.2835489E2,4.932488E1,1.7903001E2,2.7454311E1,2.1870567E1,1.33269E2,4.5761013E1],"tree_param":{"num_deleted":"0","num_feature":"20","num_nodes":"11","size_leaf_vector":"1"}},{"base_weights":[-6.4026244E-2,2.5392164E-2,-1.2453378E-1,-3.9293963E-2,-5.6862876E-2,-1.3569272E-1,2.3661464E-1,6.7476644E-3,-1.3650727E-2,2.7304163E-2,-6.269249E-4],"categories":[],"categories_nodes":[],"categories_segments":[],"categories_sizes":[],"default_left":[0,0,0,0,0,0,0,0,0,0,0],"id":55,"left_children":[1,-1,3,-1,5,7,9,-1,-1,-1,-1],"loss_changes":[9.799636E0,0E0,1.1379132E1,0E0,5.4142423E0,6.8760567E0,3.8330038E0,0E0,0E0,0E0,0E0],"parents":[2147483647,0,0,2,2,4,4,5,5,6,6],"right_children":[2,-1,4,-1,6,8,10,-1,-1,-1,-1],"split_conditions":[1.3E1,2.5392164E-2,1.07E2,-3.9293963E-2,7.28E2,5.0991E3,-4.2E1,6.7476644E-3,-1.3650727E-2,2.7304163E-2,-6.269249E-4],"split_indices":[12,0,10,0,10,19,17,0,0,0,0],"split_type":[0,0,0,0,0,0,0,0,0,0,0],"sum_hessian":[2.8037897E2,2.6120026E1,2.5425894E2,2.2616398E1,2.3164255E2,1.8301993E2,4.862262E1,6.1610252E1,1.21409676E2,2.115483E1,2.746779E1],"tree_param":{"num_deleted":"0","num_feature":"20","num_nodes":"11","size_leaf_vector":"1"}},{"base_weights":[-6.1332922E-2,2.4276096E-2,-1.1938739E-1,-3.8769454E-2,-5.423425E-2,8.37164E-2,-2.1791746E-1,-2.2442646E-3,2.118182E-2,2.430627E-3,-2.0574203E-2],"categories":[],"categories_nodes":[],"categories_segments":[],"categories_sizes":[],"default_left":[0,0,0,0,0,0,0,0,0,0,0],"id":56,"left_children":[1,-1,3,-1,5,7,9,-1,-1,-1,-1],"loss_changes":[8.925476E0,0E0,1.0784606E1,0E0,5.245578E0,5.5422077E0,5.496584E0,0E0,0E0,0E0,0E0],"parents":[2147483647,0,0,2,2,4,4,5,5,6,6],"right_children":[2,-1,4,-1,6,8,10,-1,-1,-1,-1],"split_conditions":[1.3E1,2.4276096E-2,1.07E2,-3.8769454E-2,6E0,4E0,1.299E0,-2.2442646E-3,2.118182E-2,2.430627E-3,-2.0574203E-2],"split_indices":[12,0,10,0,8,8,18,0,0,0,0],"split_type":[0,0,0,0,0,0,0,0,0,0,0],"sum_hessian":[2.7831488E2,2.6003824E1,2.5231107E2,2.1810326E1,2.3050073E2,1.2534755E2,1.0515318E2,9.157137E1,3.3776184E1,4.4553898E1,6.0599285E1],"tree_param":{"num_deleted":"0","num_feature":"20","num_nodes":"11","size_leaf_vector":"1"}},{"base_weights":[-5.8697514E-2,2.3207178E-2,-1.1425663E-1,-3.8238395E-2,-5.168111E-2,-1.5240312E-1,1.677023E-1,1.0126799E-3,-2.3934096E-2,2.1687483E-2,2.703913E-3],"categories":[],"categories_nodes":[],"categories_segments":[],"categories_sizes":[],"default_left":[0,0,0,0,0,0,0,0,0,0,0],"id":57,"left_children":[1,-1,3,-1,5,7,9,-1,-1,-1,-1],"loss_changes":[8.125284E0,0E0,1.0218304E1,0E0,5.1289415E0,8.956093E0,2.1877358E0,0E0,0E0,0E0,0E0],"parents":[2147483647,0,0,2,2,4,4,5,5,6,6],"right_children":[2,-1,4,-1,6,8,10,-1,-1,-1,-1],"split_conditions":[1.3E1,2.3207178E-2,1.07E2,-3.8238395E-2,6.16E2,-2E-1,3E0,1.0126799E-3,-2.3934096E-2,2.1687483E-2,2.703913E-3],"split_indices":[12,0,10,0,10,15,3,0,0,0,0],"split_type":[0,0,0,0,0,0,0,0,0,0,0],"sum_hessian":[2.7688797E2,2.5890491E1,2.5099748E2,2.1041065E1,2.2995642E2,1.5780928E2,7.214714E1,1.03812706E2,5.3996567E1,2.074827E1,5.1398872E1],"tree_param":{"num_deleted":"0","num_feature":"20","num_nodes":"11","size_leaf_vector":"1"}},{"base_weights":[-5.628527E-2,-2.7743554E-1,6.773056E-2,1.23926125E-1,-6.513958E-1,-1.3838611E-2,1.2673998E-1,-3.590128E-3,1.5966905E-2,-1.9770829E-2,-4.6544645E-2,3.0047208E-2,-1.6150536E-3,1.2296792E-2,-6.1780205E-3],"categories":[],"categories_nodes":[],"categories_segments":[],"categories_sizes":[],"default_left":[0,0,0,0,0,0,0,0,0,0,0,0,0,0,0],"id":58,"left_children":[1,3,5,7,9,-1,11,-1,-1,-1,-1,-1,13,-1,-1],"loss_changes":[7.588842E0,1.4995029E1,3.6464896E0,1.8881829E0,3.323595E0,0E0,9.274326E0,0E0,0E0,0E0,0E0,0E0,3.6800401E0,0E0,0E0],"parents":[2147483647,0,0,1,1,2,2,3,3,4,4,6,6,12,12],"right_children":[2,4,6,8,10,-1,12,-1,-1,-1,-1,-1,14,-1,-1],"split_conditions":[2.52E2,5.0991E3,3E1,6E0,1.1E0,-1.3838611E-2,3.4E1,-3.590128E-3,1.5966905E-2,-1.9770829E-2,-4.6544645E-2,3.0047208E-2,1.299E0,1.2296792E-2,-6.1780205E-3],"split_indices":[10,19,0,3,15,0,0,0,0,0,0,0,18,0,0],"split_type":[0,0,0,0,0,0,0,0,0,0,0,0,0,0,0],"sum_hessian":[2.7501596E2,9.836688E1,1.7664908E2,4.7767693E1,5.059919E1,2.5293406E1,1.5135567E2,2.4180532E1,2.358716E1,2.7671144E1,2.2928047E1,3.1456947E1,1.1989873E2,3.923477E1,8.0663956E1],"tree_param":{"num_deleted":"0","num_feature":"20","num_nodes":"15","size_leaf_vector":"1"}},{"base_weights":[-5.399748E-2,-2.1361236E-1,1.0975564E-1,-3.535584E-2,-4.2617273E-2,1.6758146E-2,2.733158E-2,-2.6288885E-1,2.6996928E-1,1.6428523E-1,-1.5871254E-1,3.8107408E-3,-2.7511671E-2,2.717087E-3,2.1414695E-2,1.6446669E-2,1.2283671E-3,-1.8103998E-2,1.9004581E-3],"categories":[],"categories_nodes":[],"categories_segments":[],"categories_sizes":[],"default_left":[0,0,0,0,0,0,0,0,0,0,0,0,0,0,0,0,0,0,0],"id":59,"left_children":[1,3,5,7,-1,-1,9,11,13,15,17,-1,-1,-1,-1,-1,-1,-1,-1],"loss_changes":[7.1992974E0,1.5838033E1,2.52084E0,7.71303E0,0E0,0E0,2.594457E0,6.2330217E0,1.597142E0,1.3388813E0,1.7440392E0,0E0,0E0,0E0,0E0,0E0,0E0,0E0,0E0],"parents":[2147483647,0,0,1,1,2,2,3,3,6,6,7,7,8,8,9,9,10,10],"right_children":[2,4,6,8,-1,-1,10,12,14,16,18,-1,-1,-1,-1,-1,-1,-1,-1],"split_conditions":[3.62E2,1.1E0,1.299E0,6E0,-4.2617273E-2,1.6758146E-2,6E0,6E0,-4E1,1E0,6.73E2,3.8107408E-3,-2.7511671E-2,2.717087E-3,2.1414695E-2,1.6446669E-2,1.2283671E-3,-1.8103998E-2,1.9004581E-3],"split_indices":[10,15,18,3,0,0,8,8,17,5,10,0,0,0,0,0,0,0,0],"split_type":[0,0,0,0,0,0,0,0,0,0,0,0,0,0,0,0,0,0,0],"sum_hessian":[2.7354306E2,1.3836766E2,1.3517542E2,1.09002716E2,2.9364939E1,3.5373165E1,9.9802246E1,6.2537663E1,4.646505E1,5.7552658E1,4.2249588E1,2.902233E1,3.351533E1,2.0241169E1,2.6223883E1,2.5797625E1,3.1755033E1,2.0360596E1,2.1888992E1],"tree_param":{"num_deleted":"0","num_feature":"20","num_nodes":"19","size_leaf_vector":"1"}},{"base_weights":[-5.184221E-2,2.174515E-2,-1.0409005E-1,-3.3653937E-2,-4.1148778E-2,9.839986E-2,-2.0759927E-1,-1.343118E-3,2.1142604E-2,-2.0563314E-2,-1.3151373E-3],"categories":[],"categories_nodes":[],"categories_segments":[],"categories_sizes":[],"default_left":[0,0,0,0,0,0,0,0,0,0,0],"id":60,"left_children":[1,-1,3,-1,5,7,9,-1,-1,-1,-1],"loss_changes":[6.9834633E0,0E0,8.824561E0,0E0,5.2148075E0,4.9827065E0,3.7666936E0,0E0,0E0,0E0,0E0],"parents":[2147483647,0,0,2,2,4,4,5,5,6,6],"right_children":[2,-1,4,-1,6,8,10,-1,-1,-1,-1],"split_conditions":[1.3E1,2.174515E-2,1.19E2,-3.3653937E-2,6E0,4E0,4.03E2,-1.343118E-3,2.1142604E-2,-2.0563314E-2,-1.3151373E-3],"split_indices":[12,0,10,0,8,8,10,0,0,0,0],"split_type":[0,0,0,0,0,0,0,0,0,0,0],"sum_hessian":[2.718201E2,2.5639214E1,2.461809E2,2.355451E1,2.2262637E2,1.21321655E2,1.01304726E2,8.819078E1,3.313087E1,4.711154E1,5.4193184E1],"tree_param":{"num_deleted":"0","num_feature":"20","num_nodes":"11","size_leaf_vector":"1"}},{"base_weights":[-4.9611416E-2,2.1558553E-2,-1.00876115E-1,-4.383833E-1,3.4288567E-2,-2.2947523E-1,-4.2186018E-2,-2.8592078E-2,1.4539792E-2,2.5321476E-3,-2.89758E-2,-6.43864E-3,1.4524253E-2],"categories":[],"categories_nodes":[],"categories_segments":[],"categories_sizes":[],"default_left":[0,0,0,0,0,0,0,0,0,0,0,0,0],"id":61,"left_children":[1,-1,3,5,7,9,-1,11,-1,-1,-1,-1,-1],"loss_changes":[6.7352467E0,0E0,1.1244254E1,5.772972E0,2.8582106E0,4.723234E0,0E0,4.6025133E0,0E0,0E0,0E0,0E0,0E0],"parents":[2147483647,0,0,2,2,3,3,4,4,5,5,7,7],"right_children":[2,-1,4,6,8,10,-1,12,-1,-1,-1,-1,-1],"split_conditions":[7.24E-1,2.1558553E-2,2.26E2,-2E-1,8.35E2,6E0,-4.2186018E-2,8E0,1.4539792E-2,2.5321476E-3,-2.89758E-2,-6.43864E-3,1.4524253E-2],"split_indices":[18,0,10,15,10,8,0,1,0,0,0,0,0],"split_type":[0,0,0,0,0,0,0,0,0,0,0,0,0],"sum_hessian":[2.7050186E2,2.5349802E1,2.4515205E2,6.946189E1,1.7569017E2,4.687101E1,2.259088E1,1.4181413E2,3.3876034E1,2.651103E1,2.035998E1,1.08381874E2,3.3432262E1],"tree_param":{"num_deleted":"0","num_feature":"20","num_nodes":"13","size_leaf_vector":"1"}},{"base_weights":[-4.758018E-2,2.071825E-2,-9.734076E-2,-3.2627165E-2,-3.865538E-2,1.7886369E-2,-9.136575E-2,-1.3215348E-2,4.0184786E-3],"categories":[],"categories_nodes":[],"categories_segments":[],"categories_sizes":[],"default_left":[0,0,0,0,0,0,0,0,0],"id":62,"left_children":[1,-1,3,-1,5,-1,7,-1,-1],"loss_changes":[6.247073E0,0E0,7.9433265E0,0E0,4.6762667E0,0E0,5.871014E0,0E0,0E0],"parents":[2147483647,0,0,2,2,4,4,6,6],"right_children":[2,-1,4,-1,6,-1,8,-1,-1],"split_conditions":[1.3E1,2.071825E-2,1.19E2,-3.2627165E-2,-4.62E1,1.7886369E-2,4.54E2,-1.3215348E-2,4.0184786E-3],"split_indices":[12,0,10,0,17,0,10,0,0],"split_type":[0,0,0,0,0,0,0,0,0],"sum_hessian":[2.6901477E2,2.5447687E1,2.4356708E2,2.2316729E1,2.2125034E2,2.5289118E1,1.9596123E2,9.736923E1,9.859199E1],"tree_param":{"num_deleted":"0","num_feature":"20","num_nodes":"9","size_leaf_vector":"1"}},{"base_weights":[-4.5470223E-2,2.0025967E-2,-9.684586E-2,-4.1722524E-1,2.5890712E-2,-2.0662083E-1,-4.1628014E-2,9.7656816E-2,-1.8175457E-1,-2.0256765E-2,4.8752603E-4,1.6753577E-2,-1.3851703E-3,-1.8677453E-2,2.2584002E-3],"categories":[],"categories_nodes":[],"categories_segments":[],"categories_sizes":[],"default_left":[0,0,0,0,0,0,0,0,0,0,0,0,0,0,0],"id":63,"left_children":[1,-1,3,5,7,9,-1,11,13,-1,-1,-1,-1,-1,-1],"loss_changes":[6.198977E0,0E0,9.5222845E0,5.693556E0,2.637924E0,1.9722681E0,0E0,3.9176083E0,1.9976053E0,0E0,0E0,0E0,0E0,0E0,0E0],"parents":[2147483647,0,0,2,2,3,3,4,4,5,5,7,7,8,8],"right_children":[2,-1,4,6,8,10,-1,12,14,-1,-1,-1,-1,-1,-1],"split_conditions":[7.37E-1,2.0025967E-2,2.26E2,-2E-1,1E0,5E0,-4.1628014E-2,3.4E1,4.1E1,-2.0256765E-2,4.8752603E-4,1.6753577E-2,-1.3851703E-3,-1.8677453E-2,2.2584002E-3],"split_indices":[18,0,10,15,7,1,0,0,0,0,0,0,0,0,0],"split_type":[0,0,0,0,0,0,0,0,0,0,0,0,0,0,0],"sum_hessian":[2.678513E2,2.6965872E1,2.408854E2,6.605711E1,1.748283E2,4.4825085E1,2.1232027E1,1.3031773E2,4.4510555E1,2.292221E1,2.1902876E1,4.445442E1,8.586332E1,2.3772196E1,2.0738361E1],"tree_param":{"num_deleted":"0","num_feature":"20","num_nodes":"15","size_leaf_vector":"1"}},{"base_weights":[-4.3636557E-2,1.9071074E-2,-9.281219E-2,-4.0448254E-1,2.4576556E-2,-1.9807887E-1,-4.1246396E-2,-3.6229894E-2,1.3608168E-2,-1.954186E-2,4.6407818E-4,-7.953363E-3,1.0661585E-2],"categories":[],"categories_nodes":[],"categories_segments":[],"categories_sizes":[],"default_left":[0,0,0,0,0,0,0,0,0,0,0,0,0],"id":64,"left_children":[1,-1,3,5,7,9,-1,11,-1,-1,-1,-1,-1],"loss_changes":[5.630166E0,0E0,8.816678E0,5.5567455E0,2.6564338E0,1.8233469E0,0E0,4.3857365E0,0E0,0E0,0E0,0E0,0E0],"parents":[2147483647,0,0,2,2,3,3,4,4,5,5,7,7],"right_children":[2,-1,4,6,8,10,-1,12,-1,-1,-1,-1,-1],"split_conditions":[7.37E-1,1.9071074E-2,2.26E2,-2E-1,8.35E2,5E0,-4.1246396E-2,7E0,1.3608168E-2,-1.954186E-2,4.6407818E-4,-7.953363E-3,1.0661585E-2],"split_indices":[18,0,10,15,10,1,0,1,0,0,0,0,0],"split_type":[0,0,0,0,0,0,0,0,0,0,0,0,0],"sum_hessian":[2.6666016E2,2.6950712E1,2.3970944E2,6.491436E1,1.7479509E2,4.452662E1,2.0387743E1,1.4101578E2,3.377931E1,2.2617243E1,2.1909376E1,9.473144E1,4.6284336E1],"tree_param":{"num_deleted":"0","num_feature":"20","num_nodes":"13","size_leaf_vector":"1"}},{"base_weights":[-4.1828267E-2,1.9618047E-2,-8.880738E-2,-3.1236181E-2,-3.5429887E-2,9.5879056E-2,-1.9393387E-1,2.3463042E-2,-5.808453E-4,1.3537769E-3,-1.8021632E-2],"categories":[],"categories_nodes":[],"categories_segments":[],"categories_sizes":[],"default_left":[0,0,0,0,0,0,0,0,0,0,0],"id":65,"left_children":[1,-1,3,-1,5,7,9,-1,-1,-1,-1],"loss_changes":[5.468276E0,0E0,6.877057E0,0E0,4.6056786E0,4.8703556E0,3.696452E0,0E0,0E0,0E0,0E0],"parents":[2147483647,0,0,2,2,4,4,5,5,6,6],"right_children":[2,-1,4,-1,6,8,10,-1,-1,-1,-1],"split_conditions":[1.3E1,1.9618047E-2,1.19E2,-3.1236181E-2,6E0,9.3075E1,1.299E0,2.3463042E-2,-5.808453E-4,1.3537769E-3,-1.8021632E-2],"split_indices":[12,0,10,0,8,16,18,0,0,0,0],"split_type":[0,0,0,0,0,0,0,0,0,0,0],"sum_hessian":[2.6537305E2,2.5192034E1,2.4018103E2,2.0785755E1,2.1939528E2,1.2020737E2,9.9187904E1,2.611899E1,9.408838E1,4.2977375E1,5.6210526E1],"tree_param":{"num_deleted":"0","num_feature":"20","num_nodes":"11","size_leaf_vector":"1"}},{"base_weights":[-3.9982073E-2,1.8745935E-2,-8.490094E-2,-3.06007E-2,-3.3726193E-2,9.120679E-2,-1.8542258E-1,-1.4368963E-3,2.0018926E-2,1.2871466E-3,-1.7303972E-2],"categories":[],"categories_nodes":[],"categories_segments":[],"categories_sizes":[],"default_left":[0,0,0,0,0,0,0,0,0,0,0],"id":66,"left_children":[1,-1,3,-1,5,7,9,-1,-1,-1,-1],"loss_changes":[4.9749775E0,0E0,6.4571023E0,0E0,4.1853285E0,4.5091343E0,3.3900163E0,0E0,0E0,0E0,0E0],"parents":[2147483647,0,0,2,2,4,4,5,5,6,6],"right_children":[2,-1,4,-1,6,8,10,-1,-1,-1,-1],"split_conditions":[1.3E1,1.8745935E-2,1.19E2,-3.06007E-2,6E0,4E0,1.299E0,-1.4368963E-3,2.0018926E-2,1.2871466E-3,-1.7303972E-2],"split_indices":[12,0,10,0,8,8,18,0,0,0,0],"split_type":[0,0,0,0,0,0,0,0,0,0,0],"sum_hessian":[2.6423477E2,2.5094898E1,2.391399E2,2.0192514E1,2.1894737E2,1.2028374E2,9.8663635E1,8.731608E1,3.296766E1,4.299339E1,5.5670246E1],"tree_param":{"num_deleted":"0","num_feature":"20","num_nodes":"11","size_leaf_vector":"1"}},{"base_weights":[-3.8221963E-2,-1.7690463E-1,9.6450806E-2,-1.971815E-2,-4.0992357E-2,-8.424701E-3,1.5138108E-1,-2.4319038E-1,2.749006E-1,2.5434926E-2,6.510252E-2,2.7513162E-3,-2.5617031E-2,2.1891868E-2,4.3923277E-3,2.0228812E-2,-2.3649563E-3],"categories":[],"categories_nodes":[],"categories_segments":[],"categories_sizes":[],"default_left":[0,0,0,0,0,0,0,0,0,0,0,0,0,0,0,0,0],"id":67,"left_children":[1,3,5,7,-1,-1,9,11,13,-1,15,-1,-1,-1,-1,-1,-1],"loss_changes":[4.951159E0,1.3173105E1,1.9855211E0,7.0387716E0,0E0,0E0,3.4220583E0,4.904145E0,1.367949E0,0E0,3.5076494E0,0E0,0E0,0E0,0E0,0E0,0E0],"parents":[2147483647,0,0,1,1,2,2,3,3,6,6,7,7,8,8,10,10],"right_children":[2,4,6,8,-1,-1,10,12,14,-1,16,-1,-1,-1,-1,-1,-1],"split_conditions":[3.62E2,1.1E0,3.1E1,6E0,-4.0992357E-2,-8.424701E-3,3.4E1,6E0,2E0,2.5434926E-2,1.299E0,2.7513162E-3,-2.5617031E-2,2.1891868E-2,4.3923277E-3,2.0228812E-2,-2.3649563E-3],"split_indices":[10,15,0,3,0,0,0,8,11,0,18,0,0,0,0,0,0],"split_type":[0,0,0,0,0,0,0,0,0,0,0,0,0,0,0,0,0],"sum_hessian":[2.6318347E2,1.295069E2,1.3367657E2,1.0489328E2,2.4613625E1,2.260047E1,1.1107611E2,5.9748108E1,4.5145172E1,2.0651825E1,9.0424286E1,2.8720993E1,3.1027115E1,2.3411484E1,2.1733688E1,2.1845985E1,6.857829E1],"tree_param":{"num_deleted":"0","num_feature":"20","num_nodes":"17","size_leaf_vector":"1"}},{"base_weights":[-3.6596727E-2,1.7654242E-2,-8.202666E-2,-3.801899E-1,2.6313232E-2,-3.470886E-2,-5.2781883E-3,-3.336052E-2,1.3378145E-2,-7.564937E-3,1.0200364E-2],"categories":[],"categories_nodes":[],"categories_segments":[],"categories_sizes":[],"default_left":[0,0,0,0,0,0,0,0,0,0,0],"id":68,"left_children":[1,-1,3,5,7,-1,-1,9,-1,-1,-1],"loss_changes":[4.6842594E0,0E0,7.6438103E0,5.363268E0,2.5177832E0,0E0,0E0,3.9669838E0,0E0,0E0,0E0],"parents":[2147483647,0,0,2,2,3,3,4,4,7,7],"right_children":[2,-1,4,6,8,-1,-1,10,-1,-1,-1],"split_conditions":[7.37E-1,1.7654242E-2,2.26E2,5E0,8.35E2,-3.470886E-2,-5.2781883E-3,7E0,1.3378145E-2,-7.564937E-3,1.0200364E-2],"split_indices":[18,0,10,3,10,0,0,1,0,0,0],"split_type":[0,0,0,0,0,0,0,0,0,0,0],"sum_hessian":[2.6196347E2,2.6644503E1,2.3531898E2,6.2047695E1,1.7327129E2,2.8236475E1,3.3811222E1,1.3960205E2,3.3669224E1,9.350559E1,4.6096462E1],"tree_param":{"num_deleted":"0","num_feature":"20","num_nodes":"11","size_leaf_vector":"1"}},{"base_weights":[-3.4990635E-2,3.6723275E-2,-2.719257E-1,1.9029737E-1,-1.0885947E-1,-3.901905E-2,9.384866E-3,-5.670417E-3,3.1210104E-1,-2.7686885E-2,4.1344874E-2,6.4350218E-3,2.5156816E-2,1.7449412E-2,-6.4027174E-3],"categories":[],"categories_nodes":[],"categories_segments":[],"categories_sizes":[],"default_left":[0,0,0,0,0,0,0,0,0,0,0,0,0,0,0],"id":69,"left_children":[1,3,5,7,9,-1,-1,-1,11,-1,13,-1,-1,-1,-1],"loss_changes":[4.459916E0,4.5352387E0,1.4394739E1,3.6838882E0,6.992106E0,0E0,0E0,0E0,2.4109564E0,0E0,4.1565204E0,0E0,0E0,0E0,0E0],"parents":[2147483647,0,0,1,1,2,2,3,3,4,4,8,8,10,10],"right_children":[2,4,6,8,10,-1,-1,-1,12,-1,14,-1,-1,-1,-1],"split_conditions":[1E0,1.291E0,4.82E2,1E0,2.54E2,-3.901905E-2,9.384866E-3,-5.670417E-3,9.2963E1,-2.7686885E-2,3.5E1,6.4350218E-3,2.5156816E-2,1.7449412E-2,-6.4027174E-3],"split_indices":[7,18,10,14,10,0,0,0,16,0,0,0,0,0,0],"split_type":[0,0,0,0,0,0,0,0,0,0,0,0,0,0,0],"sum_hessian":[2.6089093E2,2.0092218E2,5.9968765E1,9.762801E1,1.0329416E2,2.8140562E1,3.1828203E1,2.7966118E1,6.9661896E1,2.5394289E1,7.789987E1,3.639506E1,3.3266834E1,2.728601E1,5.061386E1],"tree_param":{"num_deleted":"0","num_feature":"20","num_nodes":"15","size_leaf_vector":"1"}},{"base_weights":[-3.359126E-2,1.7405404E-2,-7.514789E-2,-3.6214545E-1,2.842613E-2,-6.1889384E-3,-3.4314208E-2,9.3232095E-2,-1.6233277E-1,1.4706254E-2,-1.4028398E-3,-1.7619424E-2,3.011651E-3],"categories":[],"categories_nodes":[],"categories_segments":[],"categories_sizes":[],"default_left":[0,0,0,0,0,0,0,0,0,0,0,0,0],"id":70,"left_children":[1,-1,3,5,7,-1,-1,9,11,-1,-1,-1,-1],"loss_changes":[4.158818E0,0E0,7.018916E0,4.7515984E0,2.168407E0,0E0,0E0,3.191609E0,1.9049815E0,0E0,0E0,0E0,0E0],"parents":[2147483647,0,0,2,2,3,3,4,4,7,7,8,8],"right_children":[2,-1,4,6,8,-1,-1,10,12,-1,-1,-1,-1],"split_conditions":[7.24E-1,1.7405404E-2,2.26E2,-1.7E0,1E0,-6.1889384E-3,-3.4314208E-2,3.5E1,4.1E1,1.4706254E-2,-1.4028398E-3,-1.7619424E-2,3.011651E-3],"split_indices":[18,0,10,15,7,0,0,0,0,0,0,0,0],"split_type":[0,0,0,0,0,0,0,0,0,0,0,0,0],"sum_hessian":[2.5953595E2,2.4757805E1,2.3477814E2,6.1597786E1,1.7318036E2,3.6291462E1,2.5306324E1,1.2964702E2,4.3533344E1,4.827058E1,8.1376434E1,2.3167019E1,2.0366325E1],"tree_param":{"num_deleted":"0","num_feature":"20","num_nodes":"13","size_leaf_vector":"1"}},{"base_weights":[-3.2170054E-2,1.7408652E-2,-7.3600486E-2,-2.4129985E-2,-2.1848949E-2,9.821084E-2,-1.6781731E-1,2.2027755E-2,4.2241387E-5,-1.8011559E-2,-1.2139862E-3],"categories":[],"categories_nodes":[],"categories_segments":[],"categories_sizes":[],"default_left":[0,0,0,0,0,0,0,0,0,0,0],"id":71,"left_children":[1,-1,3,-1,5,7,9,-1,-1,-1,-1],"loss_changes":[4.1172843E0,0E0,4.963101E0,0E0,3.6902957E0,3.8547456E0,2.61441E0,0E0,0E0,0E0,0E0],"parents":[2147483647,0,0,2,2,4,4,5,5,6,6],"right_children":[2,-1,4,-1,6,8,10,-1,-1,-1,-1],"split_conditions":[1.3E1,1.7408652E-2,1.39E2,-2.4129985E-2,6E0,9.3075E1,3.93E2,2.2027755E-2,4.2241387E-5,-1.8011559E-2,-1.2139862E-3],"split_indices":[12,0,10,0,8,16,10,0,0,0,0],"split_type":[0,0,0,0,0,0,0,0,0,0,0],"sum_hessian":[2.5865964E2,2.4680634E1,2.33979E2,2.5345427E1,2.0863359E2,1.14655754E2,9.397783E1,2.4607988E1,9.004777E1,3.9507664E1,5.4470165E1],"tree_param":{"num_deleted":"0","num_feature":"20","num_nodes":"11","size_leaf_vector":"1"}},{"base_weights":[-3.0735252E-2,1.604753E-2,-7.206032E-2,-3.4158313E-1,2.1472244E-2,-3.3105303E-2,-3.5684858E-3,-3.5221484E-2,1.2509222E-2,-6.2656053E-3,1.2217975E-2],"categories":[],"categories_nodes":[],"categories_segments":[],"categories_sizes":[],"default_left":[0,0,0,0,0,0,0,0,0,0,0],"id":72,"left_children":[1,-1,3,5,7,-1,-1,9,-1,-1,-1],"loss_changes":[3.7822318E0,0E0,5.8627024E0,5.1405177E0,2.2568626E0,0E0,0E0,3.552114E0,0E0,0E0,0E0],"parents":[2147483647,0,0,2,2,3,3,4,4,7,7],"right_children":[2,-1,4,6,8,-1,-1,10,-1,-1,-1],"split_conditions":[7.37E-1,1.604753E-2,2.26E2,5E0,8.35E2,-3.3105303E-2,-3.5684858E-3,8E0,1.2509222E-2,-6.2656053E-3,1.2217975E-2],"split_indices":[18,0,10,3,10,0,0,1,0,0,0],"split_type":[0,0,0,0,0,0,0,0,0,0,0],"sum_hessian":[2.5765204E2,2.6380596E1,2.3127145E2,5.8898342E1,1.7237311E2,2.6277763E1,3.262058E1,1.3881044E2,3.3562664E1,1.0539903E2,3.3411407E1],"tree_param":{"num_deleted":"0","num_feature":"20","num_nodes":"11","size_leaf_vector":"1"}},{"base_weights":[-2.9363954E-2,3.659488E-2,-2.505736E-1,1.2981793E-1,-1.8373632E-1,-3.787179E-2,9.146733E-3,2.3185689E-2,7.6648123E-3,-2.3768513E-2,9.434356E-3,-2.0254718E-2,6.5572844E-3],"categories":[],"categories_nodes":[],"categories_segments":[],"categories_sizes":[],"default_left":[0,0,0,0,0,0,0,0,0,0,0,0,0],"id":73,"left_children":[1,3,5,7,9,-1,-1,-1,11,-1,-1,-1,-1],"loss_changes":[3.7691028E0,4.119046E0,1.3172046E1,5.7345285E0,6.5728097E0,0E0,0E0,0E0,5.354804E0,0E0,0E0,0E0,0E0],"parents":[2147483647,0,0,1,1,2,2,3,3,4,4,8,8],"right_children":[2,4,6,8,10,-1,-1,-1,12,-1,-1,-1,-1],"split_conditions":[1E0,-2E-1,4.82E2,1E0,6.29E2,-3.787179E-2,9.146733E-3,2.3185689E-2,3E0,-2.3768513E-2,9.434356E-3,-2.0254718E-2,6.5572844E-3],"split_indices":[7,15,10,1,10,0,0,0,1,0,0,0,0],"split_type":[0,0,0,0,0,0,0,0,0,0,0,0,0],"sum_hessian":[2.5669327E2,1.9837708E2,5.83162E1,1.3968611E2,5.8690968E1,2.6539146E1,3.1777056E1,3.6666092E1,1.0302002E2,3.2760643E1,2.5930325E1,2.3197426E1,7.982259E1],"tree_param":{"num_deleted":"0","num_feature":"20","num_nodes":"13","size_leaf_vector":"1"}},{"base_weights":[-2.825966E-2,1.7579464E-2,-6.495365E-2,1.5438393E-2,-1.1862137E-1,-3.1398582E-1,3.581615E-2,-1.7174162E-3,-3.8169663E-2,-2.3095203E-3,1.4037371E-2],"categories":[],"categories_nodes":[],"categories_segments":[],"categories_sizes":[],"default_left":[0,0,0,0,0,0,0,0,0,0,0],"id":74,"left_children":[1,-1,3,-1,5,7,9,-1,-1,-1,-1],"loss_changes":[3.5978105E0,0E0,4.7447066E0,0E0,6.226105E0,1.1415409E1,2.341726E0,0E0,0E0,0E0,0E0],"parents":[2147483647,0,0,2,2,4,4,5,5,6,6],"right_children":[2,-1,4,-1,6,8,10,-1,-1,-1,-1],"split_conditions":[9E0,1.7579464E-2,-4.62E1,1.5438393E-2,3.62E2,1.291E0,4.9E1,-1.7174162E-3,-3.8169663E-2,-2.3095203E-3,1.4037371E-2],"split_indices":[12,0,17,0,10,18,0,0,0,0,0],"split_type":[0,0,0,0,0,0,0,0,0,0,0],"sum_hessian":[2.5548795E2,2.1750402E1,2.3373755E2,2.8753794E1,2.0498375E2,9.004419E1,1.1493956E2,5.616977E1,3.387442E1,8.6716896E1,2.8222666E1],"tree_param":{"num_deleted":"0","num_feature":"20","num_nodes":"11","size_leaf_vector":"1"}},{"base_weights":[-2.7040467E-2,3.5023607E-2,-2.3757674E-1,1.20462246E-1,-1.7061798E-1,-3.6871027E-2,8.578509E-3,2.178332E-2,4.5064045E-3,-2.2642238E-2,8.871893E-3,-1.9463178E-2,6.0448796E-3],"categories":[],"categories_nodes":[],"categories_segments":[],"categories_sizes":[],"default_left":[0,0,0,0,0,0,0,0,0,0,0,0,0],"id":75,"left_children":[1,3,5,7,9,-1,-1,-1,11,-1,-1,-1,-1],"loss_changes":[3.3454359E0,3.5013964E0,1.2044153E1,5.135124E0,5.8332634E0,0E0,0E0,0E0,4.802587E0,0E0,0E0,0E0,0E0],"parents":[2147483647,0,0,1,1,2,2,3,3,4,4,8,8],"right_children":[2,4,6,8,10,-1,-1,-1,12,-1,-1,-1,-1],"split_conditions":[1E0,-2E-1,4.82E2,1E0,6.29E2,-3.6871027E-2,8.578509E-3,2.178332E-2,3E0,-2.2642238E-2,8.871893E-3,-1.9463178E-2,6.0448796E-3],"split_indices":[7,15,10,1,10,0,0,0,1,0,0,0,0],"split_type":[0,0,0,0,0,0,0,0,0,0,0,0,0],"sum_hessian":[2.5439005E2,1.9711583E2,5.7274216E1,1.395505E2,5.756533E1,2.5418625E1,3.1855589E1,3.6789097E1,1.0276141E2,3.1622578E1,2.594275E1,2.2909723E1,7.9851685E1],"tree_param":{"num_deleted":"0","num_feature":"20","num_nodes":"13","size_leaf_vector":"1"}},{"base_weights":[-2.6026119E-2,1.5497196E-2,-6.30679E-2,-3.213414E-1,2.5872583E-2,-3.0947972E-2,-3.7708816E-3,-1.1852215E-2,7.277972E-2,2.44386E-2,-2.2262868E-3],"categories":[],"categories_nodes":[],"categories_segments":[],"categories_sizes":[],"default_left":[0,0,0,0,0,0,0,0,0,0,0],"id":76,"left_children":[1,-1,3,5,7,-1,-1,-1,9,-1,-1],"loss_changes":[3.183894E0,0E0,5.288166E0,4.26805E0,2.1372094E0,0E0,0E0,0E0,7.1774015E0,0E0,0E0],"parents":[2147483647,0,0,2,2,3,3,4,4,8,8],"right_children":[2,-1,4,6,8,-1,-1,-1,10,-1,-1],"split_conditions":[7.24E-1,1.5497196E-2,2.26E2,5E0,3E1,-3.0947972E-2,-3.7708816E-3,-1.1852215E-2,3.4E1,2.44386E-2,-2.2262868E-3],"split_indices":[18,0,10,3,0,0,0,0,0,0,0],"split_type":[0,0,0,0,0,0,0,0,0,0,0],"sum_hessian":[2.5326797E2,2.4419048E1,2.2884892E2,5.795139E1,1.7089754E2,2.5533617E1,3.2417774E1,2.5260075E1,1.4563747E2,3.1338223E1,1.1429924E2],"tree_param":{"num_deleted":"0","num_feature":"20","num_nodes":"11","size_leaf_vector":"1"}},{"base_weights":[-2.4872223E-2,1.6555635E-2,-5.936866E-2,1.4782905E-2,-1.11209005E-1,-2.9585123E-1,3.135461E-2,-1.6577415E-3,-3.7248302E-2,-2.3853949E-3,1.3357739E-2],"categories":[],"categories_nodes":[],"categories_segments":[],"categories_sizes":[],"default_left":[0,0,0,0,0,0,0,0,0,0,0],"id":77,"left_children":[1,-1,3,-1,5,7,9,-1,-1,-1,-1],"loss_changes":[3.133992E0,0E0,4.3036833E0,0E0,5.358424E0,1.0432461E1,2.1674142E0,0E0,0E0,0E0,0E0],"parents":[2147483647,0,0,2,2,4,4,5,5,6,6],"right_children":[2,-1,4,-1,6,8,10,-1,-1,-1,-1],"split_conditions":[9E0,1.6555635E-2,-4.62E1,1.4782905E-2,3.62E2,1.291E0,4.9E1,-1.6577415E-3,-3.7248302E-2,-2.3853949E-3,1.3357739E-2],"split_indices":[12,0,17,0,10,18,0,0,0,0,0],"split_type":[0,0,0,0,0,0,0,0,0,0,0],"sum_hessian":[2.5260591E2,2.155644E1,2.3104947E2,2.8839558E1,2.0220992E2,8.763441E1,1.1457551E2,5.5970146E1,3.1664259E1,8.6402794E1,2.817271E1],"tree_param":{"num_deleted":"0","num_feature":"20","num_nodes":"11","size_leaf_vector":"1"}},{"base_weights":[-2.3797102E-2,3.46443E-2,-2.2422044E-1,1.13506004E-1,-1.5820609E-1,-3.5809513E-2,7.97869E-3,2.0519406E-2,3.610007E-3,-2.1461746E-2,8.214595E-3,-1.8620826E-2,5.659835E-3],"categories":[],"categories_nodes":[],"categories_segments":[],"categories_sizes":[],"default_left":[0,0,0,0,0,0,0,0,0,0,0,0,0],"id":78,"left_children":[1,3,5,7,9,-1,-1,-1,11,-1,-1,-1,-1],"loss_changes":[2.9664946E0,3.0055213E0,1.0907196E1,4.566431E0,5.0904837E0,0E0,0E0,0E0,4.2944336E0,0E0,0E0,0E0,0E0],"parents":[2147483647,0,0,1,1,2,2,3,3,4,4,8,8],"right_children":[2,4,6,8,10,-1,-1,-1,12,-1,-1,-1,-1],"split_conditions":[1E0,-2E-1,4.82E2,1E0,6.29E2,-3.5809513E-2,7.97869E-3,2.0519406E-2,3E0,-2.1461746E-2,8.214595E-3,-1.8620826E-2,5.659835E-3],"split_indices":[7,15,10,1,10,0,0,0,1,0,0,0,0],"split_type":[0,0,0,0,0,0,0,0,0,0,0,0,0],"sum_hessian":[2.516015E2,1.9544026E2,5.6161243E1,1.390077E2,5.643256E1,2.4232513E1,3.192873E1,3.681589E1,1.0219181E2,